124 100
cómo -0.0004934252 -0.0012873824 0.0028586267 0.004979756 -0.0035867335 -0.0028423818 0.0037339341 0.0036083162 0.0014288331 0.001354684 0.0049900496 0.0021974808 -0.0006884067 -0.0028110764 -0.0008980503 -0.0023818759 -0.00016388106 -0.0010674777 -0.00092168315 -0.0012031174 0.0030522547 0.003928457 -0.00489778 -0.0029554442 -0.0015627354 0.004133949 -0.003538122 0.0015407694 -0.0004850413 -0.003381707 -0.0021304628 0.0012319604 0.0039878134 0.0030826197 0.0041730586 -0.0030702895 0.00054629444 -0.0007357634 0.0031406851 0.0012691532 -0.0017663467 0.00071858935 -0.00010217547 0.00044744092 0.0036924286 0.002522149 -0.0001011699 0.0043357466 -0.0042518186 -0.0023749294 0.0014613861 0.0041347737 -0.0036708203 0.00383937 0.0044504087 -0.00024824805 0.004390476 0.001443096 -0.00025020947 -0.003704391 -0.0035293873 0.004987338 -0.0013435328 -0.0025986684 -0.0042842897 -0.003409038 -0.004347629 -0.00084732595 -0.002127213 -0.0012572773 -0.0027330252 0.00398472 -0.0022559145 -0.0002176952 0.00089142926 -0.0032623552 0.0041630357 -0.0025973145 0.0018052318 -0.0022325628 0.0007329389 -0.0049845413 0.003805253 0.00024053224 -0.002066724 0.00046581012 0.00018800373 0.0018680335 0.002722168 0.003163078 0.000802795 0.0011748723 0.003920779 0.0001660364 -0.0043417416 -0.0049674828 0.002244997 0.0015974215 -0.0039972565 0.00032573447
cómico -0.0032890004 0.0016685453 0.0039295144 0.0024366064 0.003196555 0.0044080312 -0.0017079286 0.0004654945 0.0035373904 -0.0034013113 -0.004058554 0.0017266487 0.002991949 0.0015306124 -0.00055537623 -0.0013005531 -0.0025395616 -0.0012545247 -0.0012464005 -0.0032913801 -0.0003739167 -4.6521993e-05 0.0037410494 -0.0009922123 -0.0025121802 -0.0001284259 0.0033678433 -0.0044042133 -7.841256e-05 0.004380113 -0.0026463459 -0.0023321135 -0.0018283166 -0.0033570142 0.002550412 0.0024603102 -0.0034364453 0.0030939183 -0.0032680368 -6.980662e-05 0.0033455691 -0.0036815712 0.0003634236 0.0012106396 0.0018498696 -0.0023804603 0.0012102753 0.0040986086 0.002570051 0.00016880342 0.0026826744 -0.0019118992 0.004802079 -0.0011322361 -0.0010074415 0.0039678747 -0.0012045271 0.001249853 -0.0014776891 -0.003434817 0.002698391 0.0048486735 -0.00083623 -0.0022186625 0.0045301965 0.001016334 -0.00089028705 -0.00078389916 -0.00437093 0.0031707112 -0.0018591505 -0.00223414 -0.004503735 0.0006699617 -0.00041341077 0.00037048376 -0.00086336205 -0.0035357072 -0.0014213974 0.003936405 -0.0037798588 -0.004295658 -0.0034364844 -0.004013429 0.004726772 6.373197e-05 -0.0018227975 -0.0008036137 0.004066133 -0.0010891974 2.9178625e-05 0.003750714 0.000124792 -0.004320901 -0.00082437065 0.0018944007 0.0010238996 0.00050291175 -0.0012238001 -0.004191878
good 0.0037839813 -0.0026071218 -0.0032926477 -0.0031304264 -0.0024261682 0.0024778468 -0.0018496077 -0.0007623277 0.0017104136 -0.0028350598 -0.004982844 -0.0030257355 0.0036237584 -0.0011660211 0.0026045488 0.0019904287 0.0029782522 0.0029578707 -0.0031652742 0.004881962 0.0003632735 -0.0020958022 -0.0021307808 -0.0039421646 -0.002930831 -0.0038091717 0.00196519 0.0031117613 -0.002963715 0.0049308264 -0.001110873 0.0007491061 0.0025772168 0.004536594 -0.0008896794 0.0009208858 0.0048547722 0.002605495 0.0042074975 -0.0020072942 -0.0011315411 -0.0040389523 -0.0043902877 0.0010889075 -0.0032698554 -0.002947766 0.0022319872 0.0049657794 -4.1648735e-05 -0.0028851875 -0.004807337 -0.0004114882 -0.0038814219 0.0046774116 0.0010486939 -0.002302032 -0.0018709104 -0.0032949587 -0.004537564 -7.451293e-05 0.00077519054 -0.0033333616 0.0002993779 0.004156756 0.0021854085 0.0021551568 -0.001520371 0.0026609174 -0.00022546244 0.0034749764 -0.00025654593 0.0036758622 0.0045571118 -0.004157959 0.0024542157 -0.0024806263 0.0026068448 0.0040137167 -0.0010399113 0.0019293522 -0.0031188375 0.0046857623 0.0027872336 0.0005062999 -0.0007756099 0.0045987284 0.001432723 0.0013232068 -0.0016183729 -0.0041192584 0.0036841943 0.0026434155 0.00032121447 0.003284881 0.004271948 -0.0029274411 -0.0014716794 -0.0025320426 -0.0016080516 -0.0037882638
online 0.0041833413 -0.0035130645 -0.001749149 -0.00492277 -0.0010515769 0.001969029 0.001063024 0.003500353 -0.0048344084 0.0030600645 0.0024635487 0.0012517682 0.00192273 -0.0046875463 0.00373093 0.0029867126 0.0015070699 0.0048439223 -0.0010361503 -1.6650749e-05 -5.2329993e-05 0.0012886861 0.0012493925 -0.0040059364 0.002609359 0.0019714667 0.0018627065 -0.0020296813 0.0033689206 0.0026054846 -0.00027473448 0.00483725 -0.0036373304 0.0010686505 0.0038090046 -0.002622981 -0.003066856 0.0010309062 -0.0030573227 -0.0013374635 0.0006157315 -0.0008764391 0.0037477359 -0.001218204 -0.0031321829 -0.0014917178 -0.0025343609 -0.0016967446 -0.002498199 -0.0038460991 -0.0018915365 -0.0041870633 0.0026329411 0.002851769 0.00084383076 0.0009656998 0.0036175821 -0.0049533574 -0.0048140767 -0.0025867713 -0.0034512244 0.0031565342 0.0034051922 0.0039836266 0.0015402489 0.003128779 0.0010575635 0.0014408713 -0.0040655234 0.0021152152 0.00014323434 -0.0035828135 -0.0011762996 0.0023044427 0.0038399694 0.0046556606 0.0020808768 0.0009477345 -0.004621626 0.0020699715 -0.0018167659 0.0038264017 0.0011415514 -0.0037829843 -0.0028008523 0.0020950527 0.0026556933 0.0006517832 -0.002276343 0.0034754414 -0.0012240617 0.0001460155 -0.0028621755 0.0030903718 -0.0012704444 0.002306408 -0.0030788293 -0.0038964557 0.0014186879 -0.004168804
vivir -0.0002635855 -0.004965 0.004855737 -0.0045544365 0.0048837326 0.0010665987 -0.0003213807 0.0033247676 -0.0018528278 -0.003953798 0.003921008 0.00257722 -0.0029309879 0.00047992467 0.0034712206 -0.00089963723 0.0014809022 -0.0042002085 0.0015108789 0.003373287 -0.0048331385 -0.0013023126 0.0025114676 -0.0003025277 -0.0006132811 -0.0012704075 -0.0029887743 -0.0047174487 -0.0019945097 0.0049383114 0.0002149612 -0.0023503636 -0.00066710595 -0.0023529453 0.002693988 0.0034666373 0.0011668921 0.0029545543 -0.0015691909 -0.00035405575 0.003265247 -0.0025918114 0.003878928 0.0045196866 -0.001821927 0.0011108944 0.0028786683 0.0019010204 -0.0019368296 0.00303329 -0.0015415997 -0.0005375681 -0.0024389755 -0.0031038055 -0.00062862167 -0.0044464236 0.0011083866 0.0010954381 0.0002769388 0.001184951 2.4278275e-05 0.000808708 -0.0014043783 -0.0008093257 -6.79217e-05 0.0047486336 -0.0009259426 0.0020372216 -0.0030930834 8.211188e-05 0.0015809344 0.0032838394 0.0019215834 0.004043505 0.0021626865 0.004701891 -0.0040001227 -0.0026445128 0.003660201 0.0008947309 -0.0032953427 0.00037458236 0.0045299972 -0.004079049 0.0015355315 0.0009558285 0.0035401345 0.002770372 -0.004395062 0.0029765298 -0.0029627157 0.0038107003 -0.0048974575 0.0021053448 -0.0046816603 -0.0021140804 0.003178595 -0.0026064208 0.0032674598 0.0015462695
mundo 0.003030705 0.0042859316 0.0014739279 -0.00014315087 -0.001570649 0.0035196142 -3.7420115e-05 -0.0033908123 0.00460597 0.0046150167 -0.0042717117 0.004337962 0.0033803687 -0.0032786755 0.0027769154 0.0042638457 1.7987848e-05 -0.003933648 -0.0012397531 -0.0035666493 0.00391912 0.0024148473 0.00342948 0.0023710402 0.0026739235 0.002281321 -0.0025853326 -0.00060123124 -0.0039154943 0.0039402856 0.00055767375 -0.0021270898 -0.0006251901 -0.0044163326 -0.0040975045 0.0011064765 0.0013658571 0.00027861953 0.0015634277 -0.0022298745 0.0034346008 -0.004074933 0.0032342796 0.0038562575 -0.0043449183 -0.001849177 -0.0010234055 -0.0039859326 -0.0006773986 0.004930385 -0.004471464 -0.002224883 0.0021546073 0.003106112 -0.0026263436 -0.0022150364 0.00021629823 -0.00329717 -0.0048028133 0.004706272 0.0010633427 -0.00096490124 -0.003327941 -0.0028762477 -0.0046230224 0.0014407915 0.0011553706 0.0040829726 0.0004923973 -0.00049859163 -0.0010713016 -0.003901584 -0.002510238 -0.0016245451 -0.0031342304 -0.001040835 -0.0038851022 0.0031192582 -0.0018269966 -0.0033255687 0.0019349974 2.7053113e-05 0.0024182466 -0.0033817915 -0.0044319094 0.0003736457 0.003326648 -0.0010602198 0.0036761991 0.0030645856 0.00023462901 0.0036296386 0.0045518866 0.0042869905 -0.004658071 -0.0011506535 -0.00013018698 -0.0046117674 3.853186e-05 -0.0041541904
botella -0.0027418563 -0.0016058089 -0.0036074843 0.0021738613 -0.0018463683 -0.004673298 0.0035517826 -0.001465338 -0.0023312846 -0.0045913057 0.0015428019 0.0021036423 -0.00034259184 -0.003102164 -0.003010997 -0.0028645962 0.0015059774 -0.0020539344 0.0010334082 -0.0011097079 -6.935414e-05 -0.0029644028 0.004968061 -0.0003546183 0.0036303394 -0.0001889255 -0.0042878645 0.0030228235 -0.0037491738 -0.00076679356 0.0029161295 -0.001553869 -0.0048473766 -0.0022212032 -0.00039260119 -0.0012726941 0.0001802165 -0.001325785 0.0023510177 0.0035338006 -0.0007186452 -0.000540389 -0.0010056201 -0.0044115335 0.0017590099 -0.0037237003 0.0016920626 -0.0037324936 0.004429103 0.0001938758 0.0029367853 0.004378218 0.0044679865 -0.000769859 -0.003342495 0.0040629026 0.0003780606 0.001010156 0.0027311323 0.0019596862 -0.0003958157 0.0041498453 -0.0037875506 -0.0009752486 0.004986249 0.004875938 -0.0003911494 -0.0011776055 -0.0025611345 -0.003129224 0.0026535322 -0.0018152049 0.0018648157 -0.0033099898 0.0032092908 -0.0014077973 -0.0018915273 0.0037232684 0.0040043746 0.0036098617 0.0039251526 -0.0037834474 0.0002198267 0.0038316369 0.0011843408 0.001585521 -0.0011348266 -0.004454043 -0.0019882894 0.0017751863 -0.004007737 0.0022753102 -0.0003379005 -0.0013821835 0.001983659 -0.0013766513 0.0042468896 0.0034025675 0.0027364471 -0.004736308
app -0.0019660904 -0.0031913074 -0.003208328 -0.0008422725 0.0043707876 -0.0039872495 0.0022218379 0.0027264855 -0.0024007095 0.0025993204 0.0009885161 0.0049509862 -0.0026319798 0.0022381747 -0.001593015 0.0032682149 0.0024971154 0.0018970809 -0.002131398 -0.0015093475 0.00407976 -0.0017682881 0.0012642561 -0.0029352026 0.0022017916 0.0044882116 0.0025698878 0.0009078122 -0.00031841928 0.004902867 0.00064027257 -0.0015621072 0.0028195968 -6.877484e-05 -0.0035696805 -0.0007358976 -0.0025045015 0.0013003222 0.0014349094 -0.00057894265 -0.0048781163 0.0033578225 0.0047833747 0.0044708373 -0.001996865 -0.002247964 0.004939025 -0.0014765289 0.00456367 0.001215764 -0.001820924 0.0020718733 0.003934291 0.0024519667 0.0038685275 -0.0015628418 -0.001325628 -0.0013266767 0.0018863289 -0.0018479861 0.0006213947 -0.0048099305 -0.003332592 0.00352369 0.004886528 -0.003205692 0.0015210506 -0.0049919663 -4.151757e-05 -0.004375377 0.004435949 0.001483965 0.0011360846 -0.003925815 0.0026258319 0.0035858105 -0.0030540447 0.0028210029 -0.0012105589 -0.0008629221 -0.0031954753 -0.0030374473 0.0039091655 -0.003645612 -0.0029849645 -0.004111535 0.0013967316 -0.0015899313 -0.0016373892 0.0026152385 -0.0035679385 0.0042273807 0.0001261715 -0.0009962055 -0.0035555873 -0.00067848706 0.0027393985 -0.0047391984 -0.0037508556 -0.004393286
trenas -0.004645277 -0.0019322099 0.000635523 -0.0043590474 0.0022898456 -0.0037351963 -0.0037501047 0.0020538454 0.001696186 -0.0015924808 0.0017559408 0.0019075298 0.004558013 0.0003921441 -0.0040375986 0.0030775426 0.004344849 -0.0016870346 0.0038417163 0.00026557228 0.0031390213 -0.0048239217 -0.0037874994 0.0039155553 -0.00038910456 0.0013865947 -0.0011683864 -0.00088563055 -0.0026381928 -0.003918031 0.0028036945 0.0037261108 0.0018707706 0.0014454933 0.0007761474 -0.0016533061 0.00025320947 -0.0038602322 -0.003723651 -0.0014314017 -0.0010208387 0.0038512228 0.00031977173 0.0037873625 0.0029740408 0.003328995 0.003528636 0.0008224662 -0.002238719 0.0025688766 0.0012702012 -0.00038616353 0.004632179 -0.003944427 0.00069120387 -0.0048308303 -0.002853704 0.003975288 -0.00237712 -0.0018243414 -0.00054631935 0.0045240093 -0.0047942023 -0.0003294497 0.0038115578 -0.001236013 0.0032044516 -0.0016911806 -0.0038149536 -0.004335421 -0.0025597424 -0.0013120648 0.0046883826 0.00082137453 -0.0030225043 0.0041467953 -0.0012194834 0.0015262315 0.0040040133 0.003355135 0.0040894733 -0.0032158357 -0.003396867 3.309546e-05 0.0007191058 0.0022283338 0.00018954904 0.0031842845 -0.0024011065 0.00016493197 0.003330415 -0.0031960397 0.0036803081 0.0042575602 6.9238005e-05 0.0029232942 -0.0007001185 -0.004094442 0.0033252146 0.00017298193
kaco -0.004882958 -0.002437487 0.0014183494 0.0029725546 -0.0022880607 0.0034197518 -0.0043074945 -0.0047850944 0.0015736655 -0.0038325158 0.0009794345 0.0033730722 0.0038658897 0.0019090582 -0.0018690777 0.0034920294 0.00038034207 -0.0047361664 0.00455145 0.0035170005 0.0028153409 -0.0023115366 -0.0014723004 -0.0039779763 0.0017651201 0.0018848708 0.0032710992 0.0027325023 -0.0037467761 -0.0048781005 0.00073751033 0.0017784096 0.0012966739 -0.0033575955 -0.0016596316 0.00020960288 0.003465129 0.0012505188 -0.004767585 0.003229702 0.0040911045 -0.004571797 0.0034561898 0.0003281099 0.0013814152 0.004174474 -0.004852887 -0.0047454154 -0.0020993098 -0.0025024286 -0.0019245789 0.00453803 -0.0033926175 0.0009237057 -0.0027931822 0.0039752857 0.0016400764 -0.0031148319 0.0025998533 -0.00060344476 -0.0034407447 -0.0032219049 0.003677906 -0.0005115707 0.0016304384 9.271693e-05 0.00055082864 0.0009912559 -0.0029051725 0.00019079201 -0.0017572673 0.0022361942 0.000889466 0.000120650126 -0.0006607273 0.003951409 -0.0019038351 0.0035139883 -0.00029850533 0.0015390759 0.00087961537 0.0030737512 -0.0028624313 0.0014462341 -0.004486087 -0.0042745676 -0.0020897316 -0.0012609428 -0.0045366706 -0.0011674436 0.0024597116 0.0021779046 0.002869931 -0.0004680071 0.0002471535 0.001360091 0.003282178 0.001105428 0.0042609335 -0.004126811
forns -0.0012648139 -0.0040773093 0.00344712 -0.00052873406 -0.0038347263 0.0029541587 -0.00475607 -0.00047796703 -0.00266336 0.0019321741 -0.004837059 0.0007032857 -0.0021807791 -0.0016868362 -0.0040117656 -0.0038751198 0.00058984215 -0.00306292 0.0037794202 0.0005464491 -0.0034317002 -0.0012807762 -0.00046810225 -0.002028596 -0.0028226692 -0.002063234 8.094203e-06 -0.0049726316 -0.003447839 -0.0049469816 -0.0049347924 -0.003522762 -0.0025658626 -0.003982499 0.0014501702 0.0024048975 0.00086875877 0.0015956757 -0.004981743 0.0032268981 -0.0013678271 -0.002662332 0.0009180977 0.0026734737 -0.004111707 0.0040750047 0.0045064185 0.0049248626 -0.0025034524 0.0016677998 -0.00085434545 0.0022656803 -0.0046324665 0.002842948 -0.00100198 0.00025488168 -0.0044028005 -0.00088971155 0.0026438532 -0.0015205147 -0.0022163813 0.003650152 0.0032555575 0.0012558481 -0.0022989716 0.00366131 0.0045783003 4.133431e-05 0.0030731552 -0.0018022859 0.004462103 -0.002396278 -0.004351147 -0.0024088575 8.757624e-05 0.00062593113 -0.00059608504 -0.0043268106 0.0041022557 0.004117509 -0.0012530772 0.0032626537 0.0032479614 -0.00047422628 0.00015479932 0.0019217869 0.00046870363 -0.0016633602 -0.002659835 0.0022542272 0.0041154455 -0.0010579188 -0.0030629013 0.0016182315 0.0046486515 0.004396522 -0.0029099092 0.004574451 -0.0033754667 -0.004575989
consultoría -0.0042562024 0.00045644346 -0.00010965878 0.002216141 4.9209186e-05 -0.0011402309 0.004400119 -0.0015453028 0.0017698342 -0.0014922649 0.00028443133 -0.00077682396 -0.0006553364 -0.0043861815 0.0011679746 0.004645794 0.0025466813 -0.0039154077 -0.001575503 0.0007770137 0.0025710985 -0.0036622596 -0.002600061 0.0013054742 -0.0032254434 0.0038183362 0.0003577806 -0.0030497285 0.0027307395 -0.0017567824 -0.0047692847 0.0043317 0.0018633564 0.0028510604 0.0014621384 0.0007513524 -0.0038884562 0.0010997012 0.004348933 0.0018098713 -0.0044398783 0.002667753 0.0019143859 0.0020507597 0.0039576497 0.0026770392 -0.002965241 0.0017799992 0.00225772 0.0026130117 -0.0042982437 0.0038847106 0.004406191 -0.0005965104 -0.0016828015 0.0011146077 0.0016711594 -0.0026113142 0.001251169 0.0022196162 0.0044834744 -0.0040529813 0.0037668713 -0.0038694306 0.0009709148 -0.0028655406 0.0009215119 0.0031417895 0.0032191123 0.0012501599 -0.0016272129 0.0045565376 -0.00013117088 -0.0028091427 0.0015934808 -0.0037942405 0.0009614742 -0.00346626 -0.0018544944 -0.00138252 -0.0027169904 0.0030254163 -0.00059526204 -0.0026580978 -0.0025083218 0.0025578553 -0.0016721473 -0.0009593208 0.002873599 0.0043566264 0.0048025222 0.0035633235 0.0026761172 0.00055783667 -0.0033010645 0.00019122903 0.0020009284 0.0031274704 0.0026799755 -0.004916385
márketing 0.00092516525 -0.002255553 -0.0016069678 -0.00368812 0.0021907508 0.004030667 0.003877845 -0.00061670045 -0.0049573984 0.001227516 -0.0044050175 -0.0028071995 -0.001503628 0.003659973 -0.0042894203 0.0039791185 0.003546006 -0.0010484267 0.0023726583 0.0029950815 -0.0028270837 -0.0018477984 -0.0028372847 0.0027245523 -0.000769431 -0.0042307936 -0.004138532 0.0021416591 0.0003879077 -0.00477841 -0.0043494664 -0.0013359153 0.003426807 0.001993161 -0.0042168805 0.0048455778 0.0011490973 -0.003778109 0.004441814 -0.004929001 0.0046657906 -0.00477053 -0.0029884323 -0.0048424215 -0.0001914146 0.004342648 -0.001575305 0.004087379 0.0028636213 -0.0032613655 -0.0025199158 0.0007366931 -0.0028517165 0.004193039 0.0011379911 0.0038348464 -0.00032924238 0.002457168 -0.00094626495 0.0013175665 0.004161474 0.0030554638 0.001424139 0.0006529892 0.0020428486 -0.0042905263 -0.0025389318 -0.0029586533 -0.0040218476 -0.00028939586 0.0015274895 -0.0010921784 0.00070876477 -0.0047960137 -0.004253942 0.0042086835 0.0017791104 -0.001548052 -0.0002746811 -0.001501541 0.003740644 -0.0033433542 -0.0043600965 -0.00075626216 0.00068946864 -0.000120680466 -0.0041516814 -0.0019300526 -0.0030701123 -0.0023013777 0.0046138396 0.0035441045 0.0010500709 -0.0044519766 -0.0049555292 -0.0006411162 0.0026104155 0.0021489016 -0.0003041587 -0.0009883267
guionista -0.0007883487 1.5367414e-05 0.0006860849 0.001060937 -0.00066369696 -0.0031000925 -0.004603784 -0.00022942666 -0.0009149113 0.0038499958 -0.003062262 -0.0016258752 0.0012936882 0.0028728505 -0.004566915 0.0042360276 -0.0016057929 -0.0010358054 0.0016333861 0.0010519826 0.0043569547 -0.0006240965 0.0027939556 0.00016903857 -0.003655315 0.0024756247 -0.0010415593 -0.00037212257 -0.0037145272 -0.0016080621 -0.0001391054 0.0023309689 -0.0041972483 0.003757967 0.0009046737 -0.00270797 -0.0019583157 -0.0019653966 -0.004203766 -0.0014850204 0.0045379126 -0.0031669484 -0.0024297158 0.0029574228 -0.0034573867 0.00021987966 0.001860066 0.0038495243 0.000939912 -0.003752914 -0.0013399902 -0.0002937404 0.0027387687 0.0015473098 -0.0040466236 0.004725387 0.0015697589 -0.0010091444 -0.0021029268 -0.00035866097 0.0011906939 0.002233024 0.0023184572 0.0037457952 0.0037668473 -0.002484145 -0.003533394 0.0022086205 0.0036300847 -0.0034572633 -0.004475666 0.004133844 -0.00021228408 -0.001046556 -0.0027126411 -0.003074898 0.0044967905 -0.00071897777 -0.0030143058 0.003951473 -0.0029339564 0.004243071 0.0043595955 -0.004749909 -0.0027786517 0.0010148692 0.0005543036 4.96461e-05 0.0027896382 -0.0021725409 -0.004391395 0.0048629995 0.002858647 -0.00035448547 0.0047898013 0.0011335965 -0.0047026947 -0.0046842205 -0.0044158516 -0.0034101026
adopta 0.0015162355 -0.0025213629 -0.0037025765 0.0009979404 0.00049310725 -0.0046610655 -0.0013006205 0.0020120014 -0.0014599587 -0.003526474 -0.0015182788 0.0015737733 -0.0049818964 -0.004626848 0.0027972793 -0.00041719797 0.0021376838 -0.0028578907 -0.002088148 0.004982132 0.0024892208 -0.004172554 0.0024779278 -0.0011170858 -0.00038785327 -0.00025848212 -0.0042050458 0.0038624955 -0.0024297873 0.0031829793 0.0013047277 -0.0023163198 0.0024500117 0.0046466975 0.0023347533 0.0041626017 -0.0037991838 0.0024782785 0.002851963 0.0031097 0.00088978285 0.002691707 0.0027414733 0.003094401 -0.0032161062 -0.0008648858 -0.0004975818 -0.0014357648 -0.0020770396 0.002845828 0.0024193071 0.004378738 -0.0012256522 -0.004547079 -0.001516592 -0.0013181947 0.001900914 0.0044437726 -3.4263423e-05 0.002491175 0.0007535356 -0.00028870045 -0.0014727319 -0.0010867226 0.004405279 -0.002143562 -0.00029325314 0.0018823267 -0.0033073234 0.0027070695 0.0018201114 0.0005763116 0.0018350409 0.0011156835 -0.0041004745 -0.0030620524 0.0038546217 0.0041403756 0.000509183 -0.0015122914 -0.0008861525 -0.00039353254 0.0048815166 -0.004943295 -0.0009430301 -0.0016801198 -0.0022011914 0.0030893728 0.0017076269 0.0033408194 -0.0030316028 -0.0034120476 -0.0008872931 0.002321511 0.0035239921 0.0028674214 -0.0010022338 -0.0020727185 -0.0027521893 0.0017131203
abuelo -0.0010195766 0.0045949807 0.0022271744 -0.0032679334 -0.0010839944 0.0037956566 -0.0025113267 -0.003517633 -0.0027812994 0.0014272081 0.003952529 0.0026969383 0.001006349 -0.004264418 0.0025308614 0.00077595864 -0.0024653198 -0.0041191657 0.0014954788 0.0026601672 -0.0035863698 -0.0045690127 -0.0014549573 0.0031685252 -0.0014292545 0.0042002276 0.003000983 0.00018410788 -0.0025917217 0.0030318603 0.002479099 0.0038894496 -0.0019090812 -0.004536165 -0.0027038187 0.003586748 0.0014718028 -0.000841796 0.0013279006 0.00035104316 -0.0047439956 -0.0011793211 -0.0012795484 0.0006793407 -0.0027029573 0.0036469896 -0.004303304 -0.0012615462 -0.002460199 0.004672974 -0.0016249298 0.0017232976 0.0017430724 -0.00016048821 0.004930806 0.0027108449 0.0045067426 -0.0024468838 -0.0027919794 0.0047532716 0.0048423526 0.003010835 0.0020191888 0.0037742914 -0.001923257 0.0028547987 -0.0014146096 0.00031036933 0.004959892 -0.004188375 -0.0008406923 0.004151767 -0.0044946396 -0.0029438017 -0.002119408 -0.0002784606 0.0012708287 -8.373904e-05 0.0036179125 -0.0010379775 0.002712525 -0.0005675876 -0.00016520836 -0.0028452354 0.0035998572 0.0021097292 -0.0007666782 -0.0027451864 -0.002688697 -0.0049063773 0.002855456 0.0035166699 0.001497257 0.0036204266 0.0037262107 0.004668522 0.0033262193 0.0024966078 -0.0034575253 -0.004094279
aprender 0.0002644153 -0.0015421662 0.0043619107 0.0044017998 -0.0011087495 0.0042608487 -0.00063812436 -0.00032947815 0.001032468 -0.0045827823 -0.0013729802 -0.0016637087 0.0010290105 -0.0047958503 0.00057152106 0.004125415 -0.004268902 0.0026007022 -0.0043002786 0.0038578452 -0.004036007 -0.00074581284 0.0040192916 -0.0008373279 -0.0036331166 0.0022682303 0.00043466606 -0.0043731625 -0.001263499 0.0028466862 -0.0043262234 -0.00058021606 -0.002606388 -0.0025167826 -0.00043701034 -0.0043786364 0.004321997 -0.0031161006 0.0006078381 0.0036706268 -0.004371236 0.0028586055 -0.0036182122 0.0035658113 0.002944999 0.0020059398 -0.0019428043 0.003648262 -0.0011483143 0.0036070358 -0.004250595 0.0030162984 -0.0012388134 -0.0031716041 0.0043141725 -0.0015472145 -0.00070170866 -0.0036253668 0.0010059989 0.0014914415 -0.0010850634 -0.003824062 0.0006902409 0.004836888 0.0033493685 -0.0049380222 0.0019413721 -0.0030410727 0.0026552845 0.0015014928 0.0025105728 -0.004356742 -0.00076156115 -0.0018232324 0.0011181696 0.0014487371 -0.003999502 -1.8996101e-05 -0.0035559007 -0.0017543135 0.0017466407 0.0009747056 0.0018209259 -0.0046699466 1.98121e-05 -0.004839315 0.0010488036 -0.0004208322 0.004022602 0.003422086 -3.3355045e-05 0.0046366146 -0.0018656536 -0.00395981 0.0024333629 -0.0021748354 0.0017953793 0.0008949352 -0.0010600713 -0.0037314743
mayores 0.004639256 -0.0040780483 -1.9828716e-05 -0.0033827056 -0.001292834 -0.00023853293 -0.0032244755 -0.003994803 0.002172179 -0.00229556 -0.0015522288 0.0037529634 -0.0048446 -0.0013889478 0.0009129171 -0.0032007317 0.002398353 -0.0044742282 -0.0034250522 0.00410826 -0.004234008 -0.00016300639 -0.0035772368 0.0020767783 0.0017291859 0.001968147 -0.0004469185 -0.0032447472 -0.0036017047 -0.0020194429 0.0013410633 -0.0025611054 0.00066079217 0.00392678 0.0003828907 -0.0009554339 0.0028908856 0.0047503477 0.0021051976 0.003053018 0.0049717296 0.0010046046 0.0011780336 0.0010913075 -0.0043311818 -0.0036272916 -0.0016915988 -0.00015412415 0.0020391324 -0.0040858844 0.003711838 -0.004285845 0.0030373335 -0.0016099043 0.0030835862 -0.00371712 -0.00052981346 0.00011153282 -0.0024000574 0.0026644245 -0.0045448584 -0.0016111243 -0.0036655664 -0.00021117456 -0.0033342643 -0.004956095 0.0044685886 0.0035340483 -0.0010524299 -0.0040893154 -0.0009561425 0.0032928956 0.0043717264 0.0048577436 0.0028747348 -0.0029321876 0.003014548 0.0005285062 -0.0010925004 -0.0015740535 0.0014818885 -0.001087253 0.0008808653 0.0038329393 -0.0040270104 -0.004340268 -0.0041203666 0.00088468497 0.0040173405 0.002148673 0.0049984152 0.0019573956 -0.004807882 -0.0043124855 0.0011151886 -0.0015754395 -0.0036516944 -0.004472151 -0.002352016 -0.0010692594
cristina -0.004192129 -0.0045835213 -0.0031228438 0.0010314657 0.0038363365 0.0012603061 -0.00495559 0.0011722766 0.0016810201 0.003237587 -0.00045698058 -0.0033799934 0.0012225817 0.0017648713 -0.0037356357 0.0012664959 0.004351144 -0.0035346355 -0.004124847 -0.0003074623 0.002230214 0.000108600616 3.946542e-05 -0.0023248275 0.004074149 0.0018176524 -0.0025450122 -0.002431553 -0.0010056816 -0.0017537475 0.0029011513 0.0019685284 0.0008938794 0.0004308533 0.0001371929 -0.0041417116 0.0004539276 -0.00444563 0.0011093615 0.00039104724 -0.0026837294 0.0022442676 -0.0015667239 0.0045310836 0.004791029 0.0020314613 0.0028920951 -0.00017234989 -0.003889141 0.0030597073 0.0048535923 0.002636077 0.0025121653 -0.0016241207 0.004317653 -0.0015334543 0.001206317 -0.0049066944 -0.0021645443 -0.003960116 -0.0040587843 0.0022370643 0.0016715266 0.0044930717 -0.00082581025 0.001836273 0.0006282417 0.0005431407 0.00060141424 0.0030514554 0.0019319823 -0.002543232 0.0024715394 0.004315595 -0.00043477153 -0.0036565051 -0.0043755984 0.0015235317 -0.0045341062 -0.0030244542 0.0029836064 0.0024003293 0.004930326 0.0009520919 0.0036250842 -0.0011645578 0.00089395297 -0.0015643341 -0.001399871 -0.0009773521 -0.0032086708 -0.0035660863 -0.0048521017 -0.0008241179 -0.004578748 0.0017014982 -0.0049044793 0.004867921 0.0027477283 0.00012044476
ferrer -0.0046536773 0.00012745346 6.395132e-05 -0.0008946509 0.004915777 0.0016918683 0.0033932559 0.0023725943 0.003302365 -0.0022650124 0.003762425 0.0007696522 -0.0010449028 0.0014211261 -0.0026451172 0.004073272 0.0005507869 0.0016170336 0.0023800724 -0.004544663 -0.0034191776 -0.0031165674 0.0008899465 0.0012390736 0.0043768757 -0.00042980994 -0.004518773 0.00050995004 0.0018292739 0.0019309628 -0.0022714082 0.0020094058 -0.0007168359 0.0021280702 0.0011523766 0.0045261146 -0.0014264856 -0.0028636875 0.0044248416 -0.0021984053 -0.0035560275 -0.0049039614 -0.00085408636 -0.0015610759 0.0025481791 0.0033251261 -0.003926814 -0.0043708477 -0.0041634277 0.0048783454 0.0007196898 0.0032650873 -0.0046036253 -0.004818473 0.0046222107 -0.0018154373 -0.0047354014 -0.0038128821 0.0038132898 0.003637458 0.0048469533 0.0035709352 0.0019909039 -0.002837049 -0.00015694692 0.0019892897 -0.0031488626 0.0015030471 0.00096942694 0.004797469 0.0021998454 0.004194341 0.004075944 0.0019239644 0.003228938 0.0049120667 -0.0031362076 0.0007754265 0.0037935353 0.0025593294 -0.0028364703 -0.0049950047 -0.0019675156 0.004414609 0.0008388156 0.0045935623 -0.0019856927 0.004658893 0.0049838005 -0.004001587 0.0027367217 0.0045009227 1.356642e-05 0.004418759 -0.0035410079 4.0942232e-05 -0.002368198 -0.0011447554 -0.0042634527 -0.0033273809
fisioterapia 0.004152295 0.0005037296 -0.004997456 0.002454397 -0.0019943498 -0.004883595 -0.0047856825 -0.0036192546 -0.0018827834 0.00038521798 0.0004978072 -0.004371179 0.0049548256 0.0042261225 0.002457316 -0.0013082841 0.002977092 0.003021481 -0.0022978906 -0.00323349 -0.0044955914 0.0009613555 0.003366014 0.0013515325 0.0011722154 -0.0016986756 -0.0030593113 0.004795722 0.0022043928 0.0035014271 -0.0026851115 -0.0033033455 0.0033067334 0.002201912 -0.0033710839 -0.0022423225 -0.00358559 0.0014928444 -0.0015422234 -0.0020315626 0.0026532947 -0.00024919785 -0.0042357617 0.0026127105 0.0024655673 0.0047065155 0.002811274 7.616057e-05 -0.004924311 0.0033447137 -0.0023827318 -0.0041580847 0.00044803883 0.0038626166 -0.0017779013 0.00014118757 0.0032719944 0.0037657223 0.0018003084 0.0020778012 0.0016635691 0.0042339386 0.0029916854 -0.0027696264 0.0032675345 0.00034033653 -0.0022101009 0.0006991274 -0.004138733 -0.0043206722 -0.0021036356 -0.0015950322 0.003835491 -0.0010704767 0.0048149056 0.0023495543 -0.0018234581 0.00066126784 0.00014604 -0.002891907 0.0012292208 -0.00043991223 0.001824581 0.003602904 0.0025553491 -0.0019911774 0.0027474498 0.002578518 -0.004119836 0.0024413746 -0.0034860666 -0.004980211 0.004625796 -0.0024229526 0.0042388374 -0.0019033083 -0.0034667742 0.0007006958 0.002941246 -0.0036265948
batch -0.0023181983 -0.0009669169 -0.0013025437 0.0032332628 0.0011170303 -0.0036252772 -0.004812449 -0.0036082882 0.004608228 0.004859025 -0.000497583 -0.0042382856 -0.002385017 0.0005311401 -0.002070346 0.0008144258 0.001656972 0.0044541676 -0.00033535715 -0.0029611692 0.0025466506 0.0043270644 -0.0035157045 0.002187962 -0.0028622616 -0.0013302071 0.0008858126 -0.0028249733 0.0033261266 0.0013612835 0.0006163979 0.0033208162 0.00012380733 0.0032723811 -0.0026232714 -0.00013164224 0.0011562143 -0.00042819485 -0.0021508443 0.004391954 -0.0035184545 0.0044541787 0.0014274344 -0.0020082716 0.0011890585 -0.0011814437 0.0017447134 -0.0018424062 -0.0014090855 0.0011755623 0.00210587 -9.0490605e-05 -0.003303121 -0.0011795068 -0.003582806 -0.0038703398 -0.0017333684 -0.0020860606 -0.0016274421 -0.004864959 0.0037309497 0.0022991959 -0.0015803592 -0.004400947 -0.0010648688 0.0037795545 -0.0011902686 -0.0010131932 -0.0039973883 0.0039673876 -0.00058334426 0.0033790383 0.0036592989 -0.004430487 -0.0048052343 0.0035483337 -0.0008739255 0.0045667603 0.0013959866 0.00093919225 0.0032039818 0.0031581894 0.0033616147 -0.00026913462 -0.00047350096 -0.0018099494 -0.004650843 -0.00049873226 0.0014461341 -0.0002774368 0.002271221 -0.0047774795 -0.0036676633 0.0038793513 0.0044190655 9.228411e-05 0.0021026067 0.0033660638 -0.0021492532 0.0026489676
cooking 0.00257876 -0.0013655378 -0.004710334 -6.156945e-05 0.00033387463 -0.0037411365 0.0013292553 -0.002375355 0.0019772486 0.0002137777 -0.0024550704 0.004137041 -0.0049916254 0.0044804006 0.0008547101 -0.0008275792 -0.003026877 -0.0024364686 -0.0033293793 -0.00473473 0.0010049251 0.0027026704 0.0023473043 0.0010902475 0.0031355738 0.0005897521 0.0008929268 0.0033468418 -2.8315679e-05 -0.0010705892 -0.00095086417 0.00288216 -0.00046265995 0.002037753 0.0020598844 -0.0010689291 0.0042113787 -0.0013493713 -0.004360614 0.0034685615 -0.0009773575 0.0030314203 0.00134237 -0.0022157042 -0.0037921497 0.0040483507 -0.0018188528 -0.0037595576 -0.0014154686 5.6495737e-05 -0.0003459262 -0.00049650564 -0.0010519559 0.0038960797 0.004607204 -0.00408722 0.003989795 -0.0011003132 -0.0028209393 0.00013684733 0.0034390902 -0.002082692 0.0014269799 0.0037326387 -0.004512403 -0.0041142995 0.0024406451 0.00080936257 -0.0046240166 0.0027413997 -0.0020062095 -0.0032981194 -0.0022251485 -0.0013973058 0.004050405 -0.0035784158 0.0022297925 0.0027703745 -0.0017356304 -0.0031535472 -0.0030137727 -0.0006068436 -0.00010194469 -0.0037009385 -0.0029358473 -0.0032657974 0.00281155 -0.0045680115 -0.0011760743 0.0014561106 0.004698535 -0.0012402392 0.0013543762 -0.003660471 0.0020194058 0.0033509189 -0.00020671892 -0.0030706069 -0.0033302824 -0.0009506081
montar 0.0037299418 0.0012309516 -0.0021953564 0.0035174275 0.0027525085 -0.004070458 0.004993351 0.0013850508 0.0003551545 0.0038305589 -0.0039343606 -0.0013295208 -0.001020374 0.0030933982 0.0009497583 -0.0021183577 0.0049865646 -0.0033074256 -0.0020417874 -0.0046576243 0.0049648318 -0.0037167268 -0.0015063619 -0.0047117257 0.0015524642 0.0016309669 -0.0044716247 -0.004788854 -0.004612908 -0.0027153292 -0.0024604816 0.004344137 -0.0035013016 0.0036626952 0.00411816 -0.00073412206 -0.0034125408 -0.004495814 0.0002737854 0.0013263434 -0.0017894228 -0.0041999025 -0.004042204 -0.0007646029 0.0013736598 -0.0048476984 -0.000582033 0.0046039987 -0.0016091234 0.0008172586 -0.00020147007 -0.0021149626 -0.003615284 5.270218e-05 0.0017804358 -0.0012746796 -0.0023187546 0.0008299247 0.0033844302 -0.0014831203 -0.0020866182 0.0008756221 0.0032567827 -0.004287651 -0.001823654 0.0002022335 -0.004361535 -0.0022203939 0.004681122 -0.0035988174 0.0022171487 -0.004662889 -0.0012420459 -0.004859227 -0.0013520668 0.0047089383 0.004293629 -0.0034303567 -0.0031020218 -0.0024790305 0.0048882216 -0.00063734513 -0.0038467317 -0.0025685932 0.0029650752 -0.0031397592 -0.0014347847 0.0048395316 -0.003750062 0.00048356308 0.0010413062 0.00449716 -0.0013566703 -0.002577356 -0.0042913985 0.0010172162 0.0005220138 -0.0029371036 -0.0031562012 0.0026470951
catering -0.0011465189 -0.00027938435 0.00035600696 0.00094066636 -0.0006899939 0.0036936281 0.0005736215 0.0014820854 -0.0017756879 -0.0028318958 -0.004432705 -0.0032623631 -0.004756388 0.004127276 -0.0024968106 -0.0006975532 -0.0011247948 0.004147227 -0.004198123 -0.0009420922 -0.0014294002 0.00028026983 -0.0008794541 0.0020085427 0.003699133 -0.0003297551 -0.0030443163 0.0014032536 0.0040377765 0.004731247 -0.004189495 0.004730974 0.00048853894 0.0022322012 -0.00081620464 -0.002835858 0.0037055619 0.0005918944 0.004373396 -0.003972741 -0.00086664874 -0.002927367 0.004242132 -0.0009077503 -0.00094370684 0.00023510045 0.0041995053 -0.0024307682 -3.8436458e-05 -0.00095710653 0.0034400288 -0.0044267448 -0.0024266425 -0.0047808057 0.0041768625 -0.0047952994 -0.0013170461 -0.00030098655 -0.000103576036 -0.004490164 0.0037618245 -0.00056334195 -0.004030231 -0.0043563 0.0036352715 -0.0032046884 -0.0031436603 1.8596274e-06 0.0027054052 -0.0037792923 -0.0037421263 0.0046095103 -0.0026792644 -0.004765313 0.0026706439 -0.0017072754 -0.0003960171 0.0024319896 -0.0037504474 -0.0040345606 0.00352892 0.0019546088 0.0036528325 0.0039154906 0.0013024833 0.0033593315 0.0025421593 -0.00083123497 -0.0017203543 0.0008853068 -9.353632e-05 0.0046446254 0.0018359696 0.00479538 0.0031316148 0.0027711284 -0.0017011849 -0.0010490371 0.0012495912 0.0017694097
the 0.0033312093 -0.0021827086 0.0006206353 -0.003080108 -0.0011558799 0.0047885156 0.00061258615 0.0048432904 0.0026378569 -0.002280296 -0.003544602 -0.0017298032 0.00026128645 0.002976256 -0.00474905 0.002544953 -0.0010919682 0.0035088568 0.0034500973 0.0037077854 0.00445204 -0.0021637997 -0.0028997622 0.004532761 -0.002250279 0.004575129 -0.00072464853 0.0042760973 -0.0049733142 -0.00076277426 0.0026031411 -0.0007194791 0.0012507475 -0.0043954863 -0.004937898 0.0025973853 0.0027589332 0.0028928565 -0.0037864456 -0.0023802714 0.0005883286 -0.0026697607 0.00091722986 0.004904879 0.0039766617 -0.0039500245 -0.0022528155 0.0011572219 -0.002887296 -0.0029136466 -0.00017296575 0.0045066895 0.0027087538 0.002437961 -0.004767847 0.0034805222 -0.00063940615 0.0021411323 -0.0049351547 -0.0032243032 0.0031107117 -0.00320638 6.4507854e-05 -0.004614806 0.0037610214 0.002676867 0.00073744927 0.004964192 0.003942222 0.0033752446 -0.002579399 0.0039116573 -0.0018802898 0.0043859384 -0.0035746188 -0.00044723586 0.0032452364 -8.340613e-05 0.0012772605 0.0033554407 0.0011596924 -0.0025525605 0.0032793398 -0.0047646766 0.0008063013 -0.004458399 0.0042252727 -0.004902978 0.0039611896 -0.00420611 -0.0011129617 -0.003193583 -0.0049970318 -0.0005548368 0.00076948694 0.0030706315 0.0028938116 -0.002850976 0.0020826145 -0.002601389
food -0.0012010427 0.0031340388 0.004726079 -0.0011953226 0.003571583 0.001978714 -0.004974961 -0.0036666929 -0.0039379844 0.00023850724 -0.0033226172 -0.0013375195 0.0045792875 0.00056553277 0.0035333673 0.0013414911 -0.0035699394 0.0029863084 -0.00025029163 -0.0007873783 -0.003502994 0.0038198638 -0.0033416818 0.0015303213 0.003829132 -0.0015898118 0.0039833086 0.00491621 -0.0024665785 -0.0016717358 -0.0049863625 -0.0035246008 -0.00015061162 -0.0038896706 0.00074637774 0.0030150441 0.0015999402 -0.0038703617 0.0045531793 0.00037890574 0.0012711239 -0.0043499223 -0.00088562263 0.0030572661 0.0037371705 -0.0042069545 -0.0048848367 -0.0011764435 -0.0023033866 -0.00091617525 -0.0041257637 0.00047712467 -0.004777054 -0.0020829202 -0.0030553208 0.0024546457 -0.00041855033 -0.003080561 0.0029867345 -0.0043561067 -0.0032010777 7.099907e-05 0.0025847554 0.002830476 -0.0027331652 -3.901184e-05 -0.0016075567 0.002867156 -0.0045137717 -0.0026448492 0.0047753104 0.0006353295 0.0041210745 -0.0038976136 0.0006103553 0.0022984906 -0.0013382558 0.003568151 -0.0047401562 0.0017353784 0.0042304355 -0.004390803 0.003222929 0.004090605 0.0040671118 -0.00390812 -0.00045752202 0.003526833 -0.0024735564 -0.004907266 0.0025613585 0.00091531314 -0.0015128708 0.004825216 0.0018040413 0.0025782436 -0.002002539 -0.0046679922 0.003605253 0.0009452712
company -0.0028646833 -0.0018104011 -0.0041524405 -0.002448847 -0.0035087992 0.0031997273 -0.00087813986 -5.188276e-05 -0.00084998127 0.0010689116 -0.0005175554 -0.00033195448 0.0019655938 0.0044191834 -0.0006481931 -0.00037478187 -0.00028502248 0.00427525 0.0045651942 -0.0032626258 -0.003918801 -0.003705137 -0.0023543125 -0.002381496 -0.003989998 0.0010178528 0.002078038 -0.0006266564 -0.0016230042 0.0026322133 -0.0026397381 -0.00076328946 -0.0008833409 -5.0554987e-05 -0.0005622088 -0.0025054696 0.0024012278 -0.0041759247 -0.00082775473 0.0016087412 -0.0020865046 0.0044382084 0.0011573869 0.0044452394 -0.0032228676 0.00092827406 -0.0049470747 0.002882455 0.0046124673 -0.002625976 0.00413283 -0.0001253002 0.0033146287 0.0036395031 -0.0020165225 -0.0035222515 -0.002092318 0.0024512885 0.0036750142 0.001104416 -0.002639432 0.0005197264 0.0040657497 0.0035953387 0.003495317 0.0020362947 0.0007272124 -0.00031051371 4.4830715e-05 0.0039513083 -0.003969282 0.001988631 -0.003988572 -0.004780855 -0.0030273565 0.0038195841 -0.0039309296 -0.00063408347 -0.004417271 0.00398706 0.0023432027 0.0012226247 -0.004744628 0.0037450108 0.00077364803 -0.0032877026 0.0017037785 -0.003594496 -0.00096239033 0.002616532 -0.0015753343 0.0012653407 -0.004553645 0.002181389 0.0048548817 0.00033496032 0.0014383016 -0.0022778704 0.0026890931 0.0013440097
petarlo -0.00024932035 -0.0017280381 0.004745458 0.0026108657 -0.0012196952 0.0027982276 0.0024144135 0.0044866023 -0.0021153588 0.004698604 -0.0039609126 -0.003643563 0.0039357813 0.00032644666 -0.0011399885 0.0030973617 0.0036322821 -0.0031597444 0.0013846314 0.0013007773 -0.0036416892 0.0046939426 -0.0010909409 0.0012991745 0.0012893475 0.002351709 0.00064094865 0.004027609 -0.00042602106 0.0035743513 0.0033461517 -0.0024624001 -0.00015938787 0.004821364 -0.0002123948 -0.00052614714 -0.0044018794 0.0030883765 0.00061783724 0.0029870383 -0.0041882223 -0.0038577158 -0.0037919004 -0.0009313654 -0.00075843005 0.0042421687 0.0018329897 0.00045236602 0.0013877895 -0.0017758168 -0.00021047475 0.001969119 -0.0036536346 0.0022547746 0.0021613517 0.001003602 0.0015694005 0.0010731551 -5.4696702e-05 -0.0014331052 0.0033813356 0.0042973724 0.00481431 0.0010656203 0.0028434996 -0.002517679 2.8932864e-05 -0.0039408957 -0.0019473351 -0.0036205011 0.0013425966 0.00023232285 -0.0028090891 0.000772503 0.0049228286 -0.0022113435 0.0036405725 0.00493338 0.0014908583 0.002448198 0.0036480208 0.0042646276 0.0003525617 0.0039749662 -0.0014594527 -0.0016479418 0.002681146 0.0047049937 -0.003935382 0.003926878 0.00070251647 -0.002965914 -0.0018390662 0.00022602384 0.00034941908 -0.00043448043 -0.0046381736 0.00079725997 -0.0031739308 0.0008585028
marca -0.0026209094 -0.0041434173 0.0047884732 -0.00048437365 -0.0019312133 -0.0028366114 0.00018285173 -0.0038248443 -0.004385476 -0.003329152 -0.0041841986 0.0037997165 0.0047824215 0.0045554284 -0.002088573 0.0029127186 0.0038234661 -0.0020945752 0.0031616131 0.0013720663 -0.0022422743 0.0041905204 0.0030817185 0.0048138094 -0.0036708098 -0.0019516267 -0.002504383 -0.001604847 0.004539583 0.0015864843 -0.003755194 0.0006813421 -0.0041690446 0.0040010074 0.0012803362 -0.0037653716 0.0046914793 -0.004633636 -0.0010407673 0.0018550538 0.0012934994 -0.0049652853 7.0460526e-05 -0.002625026 0.0018748593 -0.0031871747 -0.002016556 -0.0038390802 0.001573871 0.003846307 -0.004824815 0.00056131976 0.0045050397 0.000905351 0.0036313375 -0.003718445 -0.0028519575 -0.0044285874 0.00050617626 1.0704371e-05 -0.0032763057 -0.0012134085 -0.0034120467 0.0038451788 -0.00050152326 0.0028677632 -0.0012551007 -0.0015032244 0.0015208186 -0.0022161037 -0.0046462305 -0.0046421154 0.003751248 -0.0012060191 0.0016912187 -0.00031356758 0.0020579968 0.0027006557 -0.00048191525 0.0005486275 0.0017090832 -0.004427934 -0.003271458 0.004363559 -0.0027977107 -0.0011334372 0.0012841048 -0.00428622 -0.004634657 0.0025799135 -0.0022943972 -0.0023260165 0.0033217194 -0.0049682423 -0.0048574577 -0.0020155588 0.0028773216 0.0005466552 -0.0015409305 0.00034133453
blog 0.0029469489 0.0019097833 -0.0039900616 0.0036440894 0.00042105108 0.0030926813 -0.004795576 0.0031127809 0.0017498092 0.0010171821 -0.004306667 -0.0020651764 -0.0033356568 0.002901153 -0.0021187582 -0.0017171521 -0.0031405487 -0.0015634598 0.0032386314 -0.0003316751 -0.00025466457 0.0037401577 0.00030706372 -0.00462671 0.004637177 0.0017728073 -0.0017298362 0.0037319292 0.0010280863 -0.004291727 -0.0028642144 0.0015900594 -9.36677e-06 -0.0035713578 -0.003873665 0.0002602436 -0.0007611757 -0.0035631473 0.0049586073 0.00026571497 0.0047844592 -0.0013834916 0.001492486 0.0011798356 -3.881981e-05 0.002673289 0.0040241117 -0.0010435431 -0.0033389383 -0.0013637475 -0.0028137607 0.0032763167 -0.002694525 0.0005537691 0.003876753 -0.0034698646 -0.0046283584 -0.0014386186 0.0022854833 0.0041732984 -0.003089241 -0.0025448073 0.0009189045 0.0033576048 -0.004842879 0.00060336984 0.0031987317 0.00045549465 -0.00078954257 -0.0040559 -0.003922685 0.0025242663 -0.0034712448 0.0049362644 0.00039321533 -0.00011047767 -0.004464831 0.0049623293 0.00061599497 -0.003706379 -0.004969994 -0.0041529825 -0.0048697065 -0.003425256 -0.00081676914 -0.001215574 0.002116743 0.0013035128 -0.002550588 0.0023768828 0.0043651564 0.00032853175 0.002658883 0.00045135623 -0.001721972 0.0014477599 0.0023818202 -0.0049656765 -0.0006851568 -0.0007519489
viajes -0.0045741145 -0.0022403004 0.0027292897 0.0022395565 -0.0028115127 0.004438509 -0.0015425998 -0.00497224 0.0036242297 0.004866487 0.0008260217 -0.0028691946 0.0018008635 -0.0014922646 -0.00473092 -0.0043194434 -0.0046922895 0.00029365814 0.0031213155 0.004214476 -0.0010855717 -0.0007109728 -0.0032579375 0.00013643537 -0.00012069674 -0.0022319462 0.0040700287 -0.00055058586 0.003971743 0.001036064 -0.0012905473 -0.003010666 -0.0009367455 -0.0020390851 0.0028555337 -0.004324032 0.0012932867 0.0012943236 0.004383905 -0.0042878063 0.0033958235 0.0045034876 0.0046186275 0.0036427558 -0.0026319725 0.0038535956 -0.0013928021 -0.0008478869 -0.0024685827 -0.004838574 -0.001685755 -0.0027533246 -0.003906486 -0.0022392443 0.0011840584 -0.0036943625 0.0037018107 -0.0016811859 -0.00198207 -0.0006520733 -0.003938408 -0.004398629 -0.003680628 -0.0024753243 -0.0045017847 0.0031579304 0.0003099031 -0.0006810217 0.003402838 -0.00019409592 -0.0013566446 0.0036637185 0.0012290926 -0.0004777805 0.004812267 0.002106683 0.0011645047 -0.00093941065 0.0015885349 0.0028921647 0.0047437786 -0.004690146 0.002307238 0.000521883 0.0038370343 0.004641782 -0.0038391727 0.0049698628 -0.0037950429 -0.004142364 0.0016381495 -0.0015616089 0.0014508498 -0.0046698004 0.0042720195 0.0036412901 -9.036736e-05 0.002204894 0.0034473622 -0.0010295968
periodista 0.004054106 0.003361502 -0.0041711903 0.0033481854 -0.0009479879 -0.0018165208 0.0017796989 -0.004003206 -0.002951368 0.0032954456 -0.0040303473 -0.0004960272 0.0026991987 0.0015116958 0.002258799 4.6218953e-05 -0.0008736649 -0.0017749203 0.0035054728 0.0031602809 -0.00047641143 0.0015289658 -0.0035795574 0.00030377915 -0.004901015 0.0036273622 -0.002565249 -0.0017860207 -0.0006935772 0.0048059267 0.004529826 0.0048384364 -0.0040937425 0.0031874562 -0.0022849531 0.003296507 -0.0013739293 0.0033255063 -0.0014435281 0.003541397 0.0026726155 -0.0033838395 -0.0021339133 -0.00026535668 -0.002295358 -0.0028766894 -0.0027697447 -0.0018877225 -0.0030891602 0.0011632039 -0.0033661758 -0.0029746178 -0.004231102 -0.0023958394 -0.002811621 0.002245934 -0.00044859378 -0.00069280324 0.0038101156 -0.0046307975 -0.0031556915 -0.0045924694 0.0028849859 0.00067152164 -0.0041757734 -0.004964754 -0.0040778355 0.002880388 0.0020377561 0.0014732915 -0.00023620222 0.00040872634 0.0021759393 -0.003381774 -0.00075588224 0.0017878494 -0.00050708355 -0.0001372995 -0.002415213 -0.0016591891 0.001683763 -0.003553599 4.49289e-06 0.0018691737 0.0015278402 0.0038131657 -0.001352346 0.0010061931 0.0043813726 -0.0006687323 -0.0048952005 0.004258778 -0.004484578 0.002699728 -0.000116149386 0.0024275647 -0.004846507 -0.002270766 0.0022658857 0.0017706597
empresario 4.1587828e-06 -0.0024923615 0.003194983 -0.0026482602 0.0011728437 -0.002338811 0.0016010331 0.004809928 0.0047457046 0.0030993298 0.0009900201 -0.0002625933 -0.0040306137 3.4804267e-05 0.0025020135 -0.0009972984 -0.0031553435 -0.003939226 0.0010860838 0.0007467604 -3.4558147e-05 0.0008225762 0.004187124 -0.0031487541 0.002594666 0.0016861813 0.0019390516 0.004467603 -0.000271881 -0.0012308843 0.00033696918 -0.0032825049 0.00059101806 -0.0030801387 0.0012789961 0.0023276026 0.004722584 0.0017846659 -0.0027996334 -0.0015331137 0.0049177445 0.0029636985 0.003430688 -0.0014793276 0.0010672953 0.0037551548 0.0028320209 0.00043217733 -0.0013190854 -0.0044853846 -0.0025616304 -0.001055678 0.00084024685 -0.0045836517 -0.003853914 0.0040984745 -0.001185943 0.0016019281 -0.0035354309 0.0036584898 0.0019926373 -0.0022107342 0.0028694312 0.0043165423 -0.0035425096 0.002231341 -0.004753134 0.0010131274 -0.004822155 0.0032699283 0.0023159692 0.0036603129 -0.0032618698 -0.0034939444 0.00126167 0.0026629192 -0.0040452364 -0.003901544 -0.0027747029 -0.0024242483 -0.002314275 -0.0023338415 0.00078110996 0.0036786008 -0.0015181978 0.003533904 -0.0023626399 0.0005532389 0.004080381 0.0030303206 -0.0012364883 -0.0011034847 0.0022422045 -0.0028511197 -0.0023060108 -0.0035027312 0.003757985 0.0012782048 0.001612254 0.004060152
historia 0.0020209146 -0.0035959503 -0.0006309258 0.0039640805 -0.0025502548 -0.0002114333 -0.00044418866 0.0010086327 -0.0048064883 0.0033490364 -0.00021629235 0.0048560305 0.002601552 0.002939589 0.0037155806 -0.004071617 -0.004127338 0.0042106714 -0.0041949055 7.175334e-05 -0.001881517 0.00075217633 0.003413644 0.00061165844 -0.00464867 0.0031282157 0.004888077 0.0049784333 0.003479441 -0.002418969 0.004196956 -0.0032800608 -0.0010808733 -0.0022823985 0.004019122 -0.0010072538 -0.0031632744 0.0027928343 0.0034869905 0.0043874597 0.0003880038 -0.000659734 -1.9502595e-06 0.0012206145 0.0026785354 0.0026669516 -0.0043117353 -0.0016403141 -0.0012505918 0.001106471 -0.0048025292 -0.0022334491 0.0014308285 0.00039567935 0.0027702837 0.002010254 -0.0020122658 0.0011783565 0.0016460777 -0.0019283077 0.0024329782 0.004668177 0.0031641957 -0.0031764102 -0.004852274 -0.00064814737 0.0035279584 0.00057323364 0.0020860643 -0.004330663 0.0032849158 0.0042574652 -0.0031364928 0.001855369 -0.0015933993 -6.459214e-05 -0.0034498076 0.0034247905 0.00147451 -0.0007981346 0.0030239392 0.0046873973 -0.0019358074 0.0008671622 0.00017248506 -0.004158134 0.0009782782 -0.002005967 -0.00234128 0.0040581226 0.0028303466 0.0029606188 0.0019783499 -0.00021139109 -0.0017430906 -0.0048792455 0.003979005 -0.0005783744 0.0019084364 0.003302931
tipi 0.0048953174 -0.0045847697 -0.0049738837 0.0020351983 0.0009203582 -0.003411349 0.0042273467 0.0028180855 -0.0027336588 0.0018198859 0.0008262969 0.004021253 -0.001367073 0.004944188 0.0044510695 0.00023441718 -0.003950432 -0.0045082187 -0.0039977413 0.0013653387 -0.0028429532 -0.0012842829 0.0045459303 0.0014468447 -0.0008711246 -0.0037097824 6.762385e-05 -0.004587483 -0.0018574676 -0.0005751558 0.00013681735 0.0032188243 -0.0011858122 0.00048159555 0.003560759 0.0043117763 0.0016699425 -0.0030248077 -0.0005627871 0.0005382198 0.001357078 0.0029862379 0.0011353963 0.0031649736 -0.0019254509 -0.0022433063 0.0022754434 0.0012587134 -0.0016892541 -0.0018605295 -0.000628809 0.0011489289 -0.0015442376 0.0011948158 0.0021204713 0.0046808203 0.000639149 -0.0033259853 -0.0025810485 0.0020093273 -0.0048910724 -0.0024700572 0.00044307593 0.004122793 -0.0028770962 0.0036194224 0.0031119469 0.0015819918 -0.0024169837 -0.0025141386 -0.0019200093 0.0034769739 0.0031595493 0.0002996702 0.00403519 0.0049854466 0.0045808214 0.0039693816 -0.003936294 -0.00343753 -0.001363437 0.0018564292 0.0033885296 0.0005058374 -0.00040814953 -0.0018489662 -0.0011253081 0.00026219233 0.003271115 0.0038456293 -0.0011241756 0.0022422806 0.0031551842 0.00074687594 0.0032406203 -0.00012249792 0.0031949168 0.0010395115 0.00042983695 0.0020721988
tent 0.002607817 0.0016226051 -0.0035896106 -1.2042808e-05 0.001244725 -0.0047154143 -0.0043903245 0.00074979546 0.003282509 -0.0015112961 0.0049416996 -0.004806701 -0.002604906 0.00037776548 0.004394642 0.0022149396 -0.0032152976 -0.0045406027 -0.00018154531 0.00049560773 -0.0007512222 0.0019106028 0.0047718594 -0.0011478488 -0.0011139505 -0.0014898136 0.0022439335 -0.0027554636 0.0029067686 -0.0016609892 -0.001883995 0.0004968878 0.0048755123 -0.0015297864 0.004575538 0.0016939499 0.0032446338 -0.0013935037 0.00024608136 0.0016896698 -0.0046624383 -0.003530848 -0.00010770014 -0.004192421 -0.0038533085 -0.0022780942 0.0032993008 0.0005366519 0.0030308715 0.00057813845 0.0010452418 -0.0037522381 -0.0046206745 -0.0017825869 -0.0035862133 0.0012133529 0.0029970375 0.004472638 0.001938724 -0.004953103 0.0006301376 -0.0001012298 0.0026718304 0.00086926005 -0.0045766914 -0.004062897 -0.00046368747 0.0040614917 0.0016206928 0.0010668895 0.0049577304 0.0011459313 -0.003929436 -0.003930996 0.0021557005 -0.0016141499 0.0013381281 -0.00023034855 0.0015086948 0.0036978344 0.0012098639 -0.00064897974 -0.0035473423 0.0042443983 0.0045510186 -0.003928815 -0.0033143489 -0.001510195 0.0022234467 0.0011495509 0.0003400922 0.0008636243 0.0017611156 -0.0036723125 0.001526748 -0.0021384133 0.0026774989 -0.0014897084 -0.004472066 0.004607332
google -0.002651635 0.0047769775 -0.0035302984 0.001811132 0.0036751453 0.00372715 -0.0011931176 0.002901284 -0.003573468 0.0027844377 -0.00015979927 -0.0010658144 0.0025930332 0.0045440234 -0.0012046115 -0.00044183442 -0.0046744505 0.0005660795 0.0021922733 -1.8885208e-05 -0.003070703 0.0033693295 -0.003924687 0.0048034554 0.0016022769 0.00067583506 0.0034169964 0.0028225498 4.002427e-06 -0.0017481961 0.0045854584 0.0013944141 0.003327962 -0.0022699423 -0.001913489 0.0027207665 -0.0048705866 -0.0029669816 0.0048908754 -0.0013041751 0.00082622626 0.00432178 0.004191198 0.0037623853 0.003902741 0.0026425128 -6.68563e-05 -0.0033349276 -0.0025767258 -0.0010857334 0.0009506245 -0.0009605038 0.0031512482 0.0028559254 -0.0028558352 0.0042622555 -0.0035239619 0.0010375984 1.1990304e-06 -0.0024177171 -0.003771047 -0.002360111 0.0045870184 0.0009066605 0.0025574432 0.0047164685 0.00390872 0.0016610363 -0.0049283514 -0.000691463 -0.003861664 -0.004892138 -6.7335386e-05 0.003759003 -0.0003116908 -0.00014683067 0.0010854277 0.0037233895 8.758227e-05 -0.0024728943 -0.00014151486 0.002843629 -0.00043687574 0.0016742757 -0.0012925304 -2.0677666e-05 0.00479257 -0.00012940928 -0.0032086757 -0.0011466461 -0.0019085984 0.0028922337 -0.0019173647 0.0039632646 0.00013355966 -0.0011817665 -0.004484077 0.004273933 -0.002451821 -0.0037240717
moda -0.002297935 6.865789e-05 -0.0014980172 -0.0037604289 -0.0016176908 0.004695862 0.0031234836 -0.0007127936 -0.0024951824 0.0049452204 -0.0036431584 -0.003992804 -0.0023835956 0.0034530351 0.0048328186 -0.0040055607 -0.0004694208 -0.0024921366 -0.000570245 -0.00051410554 0.0018931308 0.004141649 0.00045351955 0.00063022145 0.0025358086 -0.0021657653 -0.0021784084 -0.0018302816 -0.00052854174 -0.0002883735 0.003753925 -0.00430667 0.0016029532 -0.003576669 0.0029646237 -0.0046910783 0.00078537135 -0.0047068796 0.0015120999 0.0018847275 0.0014695459 -0.0038185401 -0.004026662 0.0023092881 0.0010047889 0.0034396145 0.0040756105 0.0034083906 -0.0019737573 0.0007128525 -0.0017853118 0.0027295281 -0.0010233934 0.0032615224 -0.0023358364 -0.0028376735 0.0026910063 -0.0019307573 -0.003731544 -0.0004938972 -0.00045743852 -0.00013920489 0.00036958134 0.0018970479 -0.0021488848 -0.0033177885 -0.0008879907 -0.004131782 -0.0041101775 0.002454814 0.0035273419 -0.001017782 -0.004380979 0.0033589997 0.0040971977 0.004433774 -0.0004378576 0.00091686856 -0.0033638629 -0.0013383323 0.0038535201 0.0023025493 -0.0008353958 -0.0021595221 0.00054207636 0.00075878826 0.0033016861 0.004438562 -0.0042755 0.00044806668 -0.00022521082 0.0030115573 0.0036107302 -0.0027591542 -0.0010850057 -0.0041561127 -0.001573695 -0.0017964827 0.004879123 -0.0013014292
drestip 0.002718118 -0.0035535928 0.0039511877 -0.0010799739 0.0019247978 -0.0028702156 0.004625885 -0.004623136 0.003607945 -0.00092105055 0.0032202466 0.0048773238 0.0010045125 0.0004627916 -0.00030540297 0.0022581234 0.004573727 -0.0037522283 0.004647424 -0.004052418 -0.0017148119 -0.0010868799 0.004138321 0.0046979077 -0.00408933 -0.0005453353 6.299764e-05 0.0031307978 0.0034819362 0.003265745 -6.664877e-07 0.0033444755 0.00022375645 0.002979979 0.00036064596 -0.0017001674 0.0043146084 0.00405656 0.0037336396 -0.0026043847 -0.0004481502 0.0019298276 0.0049072914 -0.0008618854 -0.0032859938 0.0038343233 0.004196417 -0.0021439127 -0.0016391522 -0.0031067054 -0.002870977 0.0045105284 -0.004413261 0.0016956188 -0.0006972305 0.0025434839 0.0045472006 -0.00024347114 -0.00034920726 -0.0016035005 0.0030208835 -0.0016456597 0.004595246 0.0013357848 0.001267545 0.0032537205 -0.0046940832 -0.0010123393 -0.0010684265 -0.0032090002 -0.0016330081 0.00035371602 -0.0035711306 -0.0028908753 0.0047366885 -0.0035722095 -2.4534706e-05 0.0045567267 -0.0023593751 0.0021848646 0.004889955 0.0009786111 0.0040664123 0.0042135636 0.002823013 0.0025807298 0.0007016747 0.004768298 -0.0030581881 0.003339719 -0.003309017 0.0026337504 -0.00029920673 -0.0044217124 -0.0015895213 0.0032205668 0.0040999763 0.0048845927 -0.00043278656 -3.506213e-06
grosso -0.0029442115 0.002310455 -0.0026182465 -0.0049877567 0.0027721652 -0.00031165578 0.0044518393 0.0040618395 0.0044481037 -0.00215385 -0.0031623049 0.001715742 0.00033390336 -0.0039024255 -0.0004871204 -0.0047702496 -0.002367293 0.0047172094 -0.0049166125 0.003758147 -0.0009992084 0.00068207225 -0.00125077 -0.0033986587 0.0021526157 -0.0049087144 -0.0005710824 0.0024097355 0.0009788197 -0.0013879592 -0.0033820588 0.0026413451 0.0026762106 -0.004929865 -0.00357394 0.003432377 0.0044349446 -0.004384535 0.0047644274 0.0034280152 0.00067390455 -0.0034464328 -0.0043112906 -0.0043048537 -0.001431967 0.00081961293 0.0017961101 -0.00067778287 -0.0044328566 -0.0037117528 0.0028753295 0.003681665 0.004804255 0.00035826865 0.0016296728 -0.004320938 0.0041776416 -0.002822561 0.0038303633 -0.0047758073 -0.0038909644 0.0018276754 0.002725169 -0.0046076695 -0.0006029684 0.0008280775 -0.0020018371 -0.00023258079 0.004978571 0.0036455416 -0.0008094624 -0.00022536676 0.0039392733 -0.001901338 0.00084258674 0.0027828605 -0.0010299607 -0.0013028561 0.0019332679 0.004462919 0.0027856599 0.003674021 -0.003322659 -0.0009813999 0.003717321 0.0030232645 0.0025224634 -0.0030125824 -0.0008117259 0.001605335 -0.0030663775 -0.0007607537 0.00086119823 -0.0040389113 -0.0021343112 -0.0045925924 0.0038998118 0.002883549 -0.0031441732 0.001250518
napoletano 0.0039833104 0.0045130183 2.9436165e-05 -0.0035029296 0.0037226204 0.0015158494 0.0045007966 -0.0043856017 0.0026907835 -0.0019855958 0.004135842 -0.0012835228 -0.004680931 -0.004568897 0.002493444 -0.0034620815 -0.00020077205 -0.0014683926 0.00095063 0.0029198662 0.0023741522 0.0037293127 0.00022800482 0.001664597 0.0015135937 0.004144526 -0.0016427794 -0.0045318822 0.003288581 -0.0023575018 -0.0005937397 0.00089936936 -0.0008843139 0.00044838246 -0.00014966041 0.00011288146 0.00022396269 -0.004280535 -0.002150969 -0.0040875254 -0.002983821 0.0034023456 0.0007909243 0.00025962832 -0.00041710422 0.00020225407 -0.003658503 0.0044253194 0.004362705 0.0006146811 0.004207947 0.0024675226 -0.0015518542 -0.0024782973 -0.0019696495 0.0030417673 -0.004117338 0.001542953 0.00051479606 0.002370489 0.00437296 -0.0021190187 0.00037837218 -0.0009114848 0.0016862131 0.001301192 0.0036784955 -0.0026383498 -0.0010518273 0.004995438 0.0026116325 4.6159428e-05 -0.00014479688 -0.0034769033 -0.0036180394 -0.0020944027 -0.0016841667 -0.002930845 0.00015746565 -0.001075426 -7.6299235e-05 0.0015067937 -0.0037171638 0.0036253275 -0.00010666341 0.00066815544 0.0030307206 -0.0030162518 -0.0026470772 0.001815273 -0.00069480814 -0.0016186557 0.0016298761 -0.004756112 0.0001397548 -0.00013612006 0.00080401206 -2.3351598e-05 0.0007423939 -0.0012688689
mejor 0.0029084026 0.004066438 0.002879505 -0.00409086 -0.0045895125 0.00070603896 0.0034660667 -0.0040173833 -0.0004651246 0.0014830389 0.0017416116 -0.0033345271 -0.002176067 0.0006865091 -0.0038952285 -0.0035702095 -0.0016755093 0.0035064472 -0.0022211564 -0.001411803 -0.0044291387 0.0022376915 -0.0039101527 -0.0034207788 -0.004529953 -0.0016996015 -9.693919e-05 -0.0044093006 -0.00085448736 -0.00012300543 -0.0020206321 -0.0005162537 -0.0033204195 0.0031689433 1.8121706e-05 0.004122158 0.003240104 -0.0023718907 0.0026456674 -0.004397222 -0.0005945162 -0.0013135874 0.0036640633 0.0039128223 0.0035696728 0.00078344054 -0.0016712344 0.0022159186 -0.0008207902 -0.0006747309 -0.00095952686 0.0024465923 -0.003534534 0.0031556725 -0.0036248998 -0.002942962 -0.0024104821 0.0046659866 -0.0021002854 0.0013314554 0.00474812 0.0020739965 0.0036729611 -0.0046476554 -0.0022020184 0.0032496126 0.0023977247 -0.0005358947 -0.0009162902 -0.0029623564 0.0037067027 0.0021164995 0.0033871809 0.0042803967 0.0011238912 -0.0009290886 0.00031760064 -0.0036943099 0.0013136488 0.0038442092 -0.0041497424 0.0027823902 -0.0010745251 -0.004486407 0.0034708306 0.00011685727 -0.00370554 -3.1170108e-05 0.0013838097 0.0019388492 0.003639694 -0.0015978913 0.0009898092 -0.001253403 0.0022049996 -8.336407e-05 0.0010216241 -0.0032192213 -0.0023021519 -0.001646216
pizza 0.0016236425 -0.000925661 0.00028993416 -0.001887349 0.00080027524 0.0034577032 0.00035210818 -0.00022726117 0.0022254346 0.0024069007 -0.00033912298 -0.0044166567 0.0024032043 -0.0031939251 -0.0016235489 0.0046029626 0.0014371772 -0.0010063936 0.0026621458 0.0026175529 -0.001637232 -0.003515275 0.00024784353 -0.0027460945 -0.0049226126 0.00083166367 -0.00042688494 -0.004234557 0.0014584255 0.0015149388 -0.0030642443 -0.0026170397 0.0033668128 -0.0014505945 0.0013408379 0.0024096747 0.002044928 0.0029328093 -0.0009115759 0.0010593466 -0.00015785191 0.0019206028 -0.001265213 -0.0014941333 -2.3584718e-05 -0.0020766626 0.002551676 0.0024547796 0.004479217 0.0019365445 0.0022317013 0.0030421969 0.0038396115 0.0047798962 0.00069002283 0.0048613655 -0.0007438167 -0.002792229 0.004159787 0.004303273 0.00013521967 -0.0016559287 0.0026882535 -0.002453213 -0.0038844554 0.0015668515 0.0040523815 -0.0020300993 -0.000571622 -0.0026030666 6.807632e-05 0.0024867293 -0.0021738613 0.003395153 -0.0015847252 -0.00090104504 -0.00042947647 -0.00091524975 0.00017969502 -0.004660453 0.0041602645 0.0020766538 -0.004895355 0.0036194306 -0.002713306 0.0019452423 -0.0015981297 -0.003411789 0.0039347126 -2.6657004e-05 -0.0019802707 -0.0049347435 -0.001863618 0.0016278222 0.0027240627 0.0015381564 -0.0020417536 0.0032949268 -0.0033261362 0.002129755
españa 0.0012603664 -0.0026043663 -0.0021225603 -2.7191943e-05 0.0024754985 -0.0016405006 0.0012992005 0.00080356875 0.0026832009 0.0048752483 0.000136397 0.0020507593 -0.0014674461 0.0018832661 0.0017523818 0.0027163331 0.0012922183 -0.0041542742 -0.00075261673 0.0014735771 0.00303694 0.0024511279 0.0010829426 -0.004163467 -0.0033197857 -0.0028442307 0.002274758 0.00050635915 0.0011552278 0.0032748803 -0.00036231265 0.0006754337 0.002347789 -0.002329167 0.00059021264 0.0045042196 -0.0040050503 0.0006597387 -0.0033475228 0.001971184 0.0049386662 -0.00039876226 0.0033456527 -0.0013729373 0.004270843 -0.00038964098 0.00029372165 -0.004523369 0.0019071983 -0.003791419 -0.0015515399 -0.0022219592 0.0033956065 0.0015563471 0.0012140314 0.0011184807 -0.0017135144 0.0017145661 0.0007266458 0.0048913625 0.0023930185 0.003559248 -0.003550582 -0.0015526155 -0.0022465542 -0.0027860946 0.0014811333 0.0014091764 0.0029799726 -0.0025751807 -0.0009257246 0.0021397665 0.001480658 -0.0019260051 -0.0017256537 0.003397992 0.00030178842 0.0043966235 0.0032468538 0.0013156158 -0.0029734627 -0.0031557402 -0.004122512 -0.0047017145 0.002669083 -0.0023490214 0.004629277 0.0034713962 0.0018476492 0.0016538707 -0.0023642678 0.0036391534 -5.9969832e-05 -0.0036054496 -0.00026545324 -0.0039440575 0.0019184112 -0.0038446947 0.0036985518 -0.0028328854
peluquería 0.0025866628 -0.0013795515 -0.0012674115 0.0041489485 0.0018689415 0.00495891 -0.0048889737 0.0013989678 -4.876764e-05 0.0034103193 0.0019502356 -0.0042054537 0.0036829836 0.0035936001 0.0046510776 -0.0032970477 -0.0013630945 -0.0019140439 0.0045287483 -0.0048124064 0.0021171577 0.001790379 0.002460818 0.0038855758 -0.0036018293 0.00020182502 0.0026329784 0.0026298657 0.0019063187 -0.004533043 -0.0005775504 0.002157267 -0.0020190845 -0.00048413928 0.0045639095 -0.0016152029 0.0024788103 -0.0005732643 -0.0006546243 0.002988478 -0.0012126266 -0.0008825468 0.00044050708 0.0026776975 0.00417113 0.004116249 0.0037138017 0.00011536258 0.00033990046 0.00022916471 -0.0006057729 0.0003002302 -0.0035599133 -0.0048327814 0.0047725467 0.0027519567 -0.00013938115 0.0014700086 0.0010799565 -0.0024258299 0.004094097 -0.0030357256 -0.001689837 -0.001966762 -0.0043509738 0.0041865013 0.0021502578 0.0011481632 -0.0036400598 0.004457495 -0.0009630549 0.0023059167 0.0037837946 0.0020015473 0.0038674204 0.004498739 -0.00473653 -0.0034391666 0.002301344 0.0026394073 0.0038423655 0.002096272 0.0024790037 0.000997939 -0.00043868693 0.0012813391 -0.000836512 0.0033579438 -0.004449548 -0.0006168272 -0.002693662 0.0026455903 -0.004925599 -0.004582379 0.004214949 0.003512007 -0.0029459447 -0.003193264 0.0017508457 0.0007708169
transgresora 0.0007162014 -0.003248701 0.0041747657 0.0038359172 -0.0003812081 0.0006057003 -0.00012448376 -0.003169627 0.0030337044 0.00402161 0.0034010664 -0.00013928226 0.0005253342 0.002603011 0.004849355 -0.004773474 -0.000712498 -0.0010152392 0.0010553568 0.002219552 0.0015665861 -0.0011585786 -0.0004916007 -0.0019063358 -0.0047262697 0.00055116334 0.0007115067 -0.003203257 0.0014548906 0.001278207 0.004618513 -0.0006159157 -0.0035974982 0.001078032 0.0029273534 0.00047071217 0.0040957825 -0.0021887578 -0.0021812192 -0.0016983214 -0.0040472415 0.001335795 -0.004442116 -0.0049812472 -0.0021397923 -0.0045471545 -0.00070032215 -0.004406686 -0.003123502 -0.00064028235 -0.0045871986 -0.003740249 0.0048717847 -0.00038244418 0.0002633408 0.003413732 -0.004081236 -0.0020731175 -1.9343335e-05 0.0016204094 0.002084023 -0.0015441447 -0.00067358825 -0.0036279557 -0.0033775487 -0.0034157238 0.0009034886 0.00254768 -0.0006494505 -0.0045905076 -0.0037997726 0.0010469311 -0.0041001285 0.0036017108 0.0003572484 -0.0010534115 0.003311831 -0.0019576482 -0.0023063554 0.0006402484 -0.0029201529 0.0030250235 0.00065355015 -0.00028272727 -0.0002722598 -0.0022791342 0.0049292315 -0.00047408932 0.003497173 0.004772958 -0.001169597 0.0017650847 0.0035702363 -0.00013018562 -0.0016226791 -0.0006329076 -0.0047537615 0.0047157686 -0.0024976674 0.00080493686
madrid -0.00020903503 0.0044201724 -0.0014183642 0.0026619832 -0.0005555336 0.0016998329 0.002118363 0.00416495 0.0032891706 -0.002560418 -0.0016486435 0.0041219913 -0.0032244544 -0.0009777291 -0.00083348854 0.0021455842 0.0044871746 0.003560022 0.0005417513 -3.5584886e-05 -0.0025446578 -0.004574402 2.239408e-05 0.00035923446 0.0042633344 -0.0008768853 0.0008108906 -0.0034065566 -0.0027742505 -0.002178313 0.00042420672 0.0039247205 0.003599206 -0.0013531856 -0.0038760526 -0.0045577297 0.0048316494 -0.00430702 -0.00458944 0.0046208743 0.004703111 -0.002015395 -0.0009686792 0.0011960625 0.0031274029 0.0005387139 0.0043778443 0.0025781812 -0.002837083 0.0018640666 0.00011127666 0.004667908 -0.0043100403 -0.0035080104 0.0042497027 -0.0024072125 0.00091791025 -0.003959079 -0.0015217643 0.0005215735 0.0024500182 0.0045603327 -0.0021015862 -0.0044786446 -0.0023131175 0.0045259884 0.003578633 0.0035038793 0.002893532 -0.002944165 0.0020820817 0.0034886003 -0.0035566522 -0.0035712684 -0.0031064805 -0.0020006218 -0.0021394256 -0.00010522205 0.0010943586 -0.0033395977 0.0015185943 -0.001133558 0.0033456436 0.0010199373 0.0014997212 0.0045769056 -0.002034685 -0.0013011381 -0.0009903782 -0.0036926114 -0.0014265883 0.0029986554 -0.0034715855 0.0043105283 -0.0040988773 -0.00279297 -0.002332149 0.0013832112 -0.0012738458 0.00023976633
corta -0.0009217401 0.00020190072 0.0023569197 -0.0034778442 -0.00034669935 0.0035692367 -0.00088656606 -0.0017711923 -0.0005346349 0.0029274551 0.001463736 0.0025263417 0.0031270497 0.002909753 0.00033980323 -0.00021375535 0.0044878316 -0.0029154383 -0.0015061594 -0.0023075049 -0.0018953251 0.0008851389 0.00480912 -0.0031770584 -0.0031746898 0.0037681249 0.0045491857 -0.0033590358 -7.42172e-05 0.0018495328 -0.0008332553 -0.00034200717 -0.00059342704 -0.0043125856 0.00026064526 -0.0016161128 0.0031136824 0.00080847356 0.0028813083 0.0025010495 0.0019758781 0.0027999373 0.0031479 -0.0032598972 0.0003215245 -0.0025964235 -0.0036302235 -0.0008523779 -0.0037493678 0.004593359 -0.0018310788 0.004510409 0.00415671 -1.891094e-05 0.0041829105 -0.0024132773 -0.0016743449 0.0034537828 -0.0013746539 -0.004269468 0.0010486564 -0.0014840396 -0.0008874556 0.0039497567 0.001029965 -0.0043535377 0.0040182713 0.0010190886 0.00093543035 0.0029927834 0.0036222877 -0.0022175862 0.0009390133 0.0039042488 -0.004198641 -0.0035266394 -0.000627214 0.0034789878 0.0035225586 0.0042131348 -0.0040735546 -0.004329918 -0.0020601354 0.00067384774 -0.00049005187 -0.0029109968 0.0011795962 -0.0038319807 0.0046192156 0.0007214491 0.0031385082 -0.0011949469 0.0013279123 0.0038590382 0.0038404395 -0.001870658 -0.0041997167 0.0012952063 0.0008907298 -0.004960872
cabeza -0.0046249656 0.00059966085 0.0027904965 -0.00018454515 0.0026171315 -0.001501118 -0.00024985685 0.0018444227 -0.0025981509 -0.0030823634 -0.004875927 -0.0045632627 -0.0016152004 0.0042833616 0.0021412 -0.001701271 -0.0033170253 0.004291698 0.0032573082 -0.0008283895 -0.0024533148 0.0032138128 0.0014857689 -0.00022443407 -0.0029151696 0.0010329977 0.0043191123 0.00039869783 -0.004557979 0.004306591 -0.0007219467 0.0035883766 0.004080393 -0.0014902018 0.0004123981 0.0043096743 0.0015441955 0.0002016826 0.0025494148 0.0036893012 0.0035547586 -3.743956e-05 -0.003078116 0.0029162175 -0.00031042623 -0.0018998664 0.0024016565 -0.0022657204 -0.0023849532 0.0018011582 -0.0048404285 0.0012921292 -0.0018694857 0.0038218067 0.0024831207 -0.0030507422 -0.0012025642 -0.00096162606 -0.004156491 0.0015502525 0.0043848334 -0.0012969846 0.0023577947 -0.004884653 0.0015670651 0.0037552374 0.0022970932 0.0029693085 -0.0044803806 0.0019629812 0.0036774394 -0.00325745 -0.00056305213 0.0046813935 -0.0044869115 -0.0038866159 0.0034899856 0.00042504419 0.004308361 -0.0026805338 1.25485085e-05 0.002820054 0.004134679 0.002403466 0.0002738215 -0.0015129539 0.001336585 6.711018e-05 -0.0025322507 -0.004113635 0.0016664001 0.0014249731 -0.0012478834 0.0028740612 0.0014184278 -0.0036682794 -0.0015607005 0.004644423 -0.0009942873 -0.003946569
new -0.0004833213 -0.0032069325 -0.0011135098 0.00065797684 0.0009645333 0.0009782766 0.00397151 0.0042835623 0.0015175949 0.00483684 -0.0016819865 0.0019525863 -0.002599352 -0.0011429178 -0.0026652736 -0.003067385 -0.00071555504 0.003823476 0.0010115707 -0.0048153703 -0.0007803506 -0.004589216 0.0034827618 0.0045075137 -0.0025432478 0.0011239809 -0.0042075845 -0.0007340035 0.001011335 0.002156773 0.001605692 0.0010880021 -0.0037342364 -0.0031746791 0.0023462893 0.0050000157 -0.0003295678 0.0017609244 -0.0019646967 -0.0014390422 -0.0021831878 0.0049577677 -0.0010072081 0.004124278 0.00329338 0.0033383868 -0.0032771842 0.0004167097 -0.0016217809 -0.0035996058 0.0028494508 -0.0022545725 -0.0009632104 -0.0022978992 -0.0026781347 0.0040127058 0.0034286922 0.0019005892 -0.0026875723 -0.0022844092 0.0044456203 0.001532364 0.002334835 -0.0048531867 0.00033965555 -0.0034089657 0.0019717584 0.0022982217 0.0025255906 0.00090382673 -0.0020417508 -0.0030937297 0.0044138497 -0.0016904917 0.00024196174 0.0040562893 0.0037253804 -0.0010036244 0.0025012887 -0.0026361102 0.0024388588 0.0009864519 -0.0015089925 0.0030015353 0.003314344 -0.0026772234 0.0008406549 -0.0027352856 -0.000941717 0.0043633487 -0.00048880564 -0.0015788957 -0.0017557889 0.004018295 -0.0020895249 -0.0044086915 0.00104012 -0.0029170036 0.0025632184 -0.00047424
york 0.0032888153 -0.0015943667 0.0017584766 0.002628063 0.0020017694 -0.0023570228 0.0020979887 -0.004870029 -0.0015883582 -0.0023785837 0.0012502653 -0.004481163 0.002268213 0.001181817 0.0032477388 -0.00037419327 -0.0031035242 0.00060336816 0.0008690233 0.0048260926 0.0035687014 0.0020416002 -0.0042979037 0.00057119224 0.004760149 -0.0040938747 -7.786099e-05 -0.0017287148 -0.0007327797 -0.00028971475 0.0011873161 0.0005670081 0.0019317515 -0.0040572397 0.0010910825 0.0005748965 0.00039465184 -0.004559846 0.0024975478 0.0031072947 -0.0042197276 0.00016751485 0.0042388197 -0.003002207 0.0010612879 -0.001954806 0.0041600894 0.0042012506 0.004210966 0.0014408336 -0.001965857 -0.0012425595 -0.0042262 0.004501637 0.0009245209 -0.0035176196 0.004994452 0.0040091434 0.0025269587 0.0012198464 0.0016819312 3.0166962e-05 -0.0040187603 0.00399888 0.004043068 -0.0009830869 -0.0035351429 0.003064967 -0.0028893638 -0.004133174 0.0012719284 -0.0012294095 -0.0047524874 0.004384262 0.004985154 -0.0008069619 -0.0041235816 -0.003232195 -0.0031038972 -0.00025254386 -0.0013116807 -0.0032224383 -0.0011753747 -0.00014029226 0.0016197546 0.00183837 -0.0039579277 0.0036233985 0.0016241081 -0.00020089177 -0.00076995057 0.0030804856 0.0003213774 -0.0005073299 -0.0040151505 -4.96184e-05 0.0021300933 -0.0027721352 8.963141e-05 -0.0032635091
burger -0.0016774109 -0.003247359 0.0035554105 -0.0022989905 0.0033807694 -0.0028612309 0.003136325 -0.0045300853 0.003292073 0.000903007 0.0014077653 0.0023741946 -0.0006734595 -0.0026051851 -5.1640898e-05 0.0036671287 -0.0022950268 -0.002036667 -0.0027089398 -0.0012744785 0.0018683645 -0.0044169654 -0.002874651 -0.0028603103 -0.00435571 -0.002868926 -0.0021992135 -0.0013912462 -0.0039099064 -0.0026631888 -0.0038791145 -0.0014594794 -8.786553e-05 -0.0025027464 -0.004011799 0.000763205 0.0022834677 -0.0026571227 0.002151127 0.0049464423 -0.0013920111 0.0021043208 0.004980892 -0.002577274 -0.00035467005 0.0021170645 -0.0012520489 -0.0013697371 -0.0015678233 0.0038997617 0.0018429816 -0.0034805464 0.0007367934 0.00043047415 -0.0014577236 -0.000106062165 0.0037170162 -0.0030888775 -0.0010640896 -0.0049059507 0.004337527 0.0024660479 0.00071086746 0.0017664075 -0.00032613453 -0.0013801546 0.0028106307 -0.0021554804 0.002976832 -0.0034410015 0.00070079754 -0.0011853906 -0.00059096323 0.0019319202 -0.00010942599 0.0009169135 0.0029726871 -0.004015074 -0.0036583967 0.0031221502 -0.0031695797 0.0008660963 0.00423406 -0.004183155 -0.0022930403 -0.00052945927 0.0014814434 0.0029992904 0.001965005 -0.00498745 0.00065009604 0.0043606437 0.0015088336 0.001981367 0.0009142747 -0.0030479275 -2.1259433e-07 -0.0032366754 -0.0022186502 -0.004598403
hamburguesa -0.002860159 -0.003165654 0.0006110239 -0.0045048986 0.0028077485 0.0005202853 0.0029256667 -0.0021524439 0.00045489855 0.0031549684 -0.004644503 0.0021838807 -0.0018764806 -3.6519497e-05 0.004735186 -0.0037513755 -0.002486032 0.0034352199 0.0036704596 -0.0040160213 0.000670418 -0.0047104065 0.0026192763 0.0032744932 0.004258194 -0.0036287399 -0.003996008 0.003023039 -0.00456769 -7.66868e-05 0.0013638828 -0.00021485156 0.0016122398 0.0049804393 -0.0021886383 0.00094258174 -0.0004952494 0.0022570277 -0.0015900357 0.00238778 -0.0017238278 -0.002223385 -0.0042856154 -0.0015602312 -0.004118225 0.0018507807 0.0043976135 -0.0013530507 0.002166368 -0.002361585 -0.00018246012 -0.0012224705 -0.0001504265 0.0013069342 0.004005675 0.0029964566 -0.0041659847 0.0014301889 0.0028663042 -0.00031152135 -0.00040893786 -0.00015820887 -0.0036365294 0.0026183587 0.0039763874 -0.00053095963 -0.0004403355 0.0027005135 0.0042521553 0.0024625568 -0.00097015477 -0.0030846056 0.0005251662 0.0021223198 -0.00091885275 0.0026037332 -0.0036665574 -0.0018154687 0.004356655 0.0025780837 0.0042158808 -0.0027991668 -0.0012959377 -0.0044160527 -0.0012080309 0.002957431 0.0047656843 -0.00283684 0.0027213243 0.002203187 0.0012570558 0.0013341609 0.004936929 -0.00089944893 0.0047082854 2.298203e-05 -0.004625977 0.0016084055 -0.0008514185 0.0018057263
gourmet 0.003819062 0.0020204717 0.0011853571 0.001547025 -0.0037062727 -0.0009926602 0.004058538 0.004530037 -0.0014305447 2.9116904e-05 0.001070571 -0.003278882 0.00018947775 0.0048628137 0.0006940357 0.0030054555 0.00076804624 -0.004948459 0.0044654068 -0.004943995 -0.0010658045 -7.8389545e-05 -0.0043248255 0.000690246 0.0025920705 -0.0015839831 0.0022418941 0.0014778733 0.0033043388 -0.0021658859 0.0033182972 -0.004028206 0.00036548477 -0.00037622114 0.0029852 0.0010300715 0.0006803054 -0.004471975 0.0043966565 0.004650831 0.0030427119 0.0041039195 -0.0009914353 -0.0020627037 0.0028026558 0.00053757627 0.00018678073 0.002183468 -0.0002445263 -0.00406488 -0.00195346 0.0037089807 0.0008050243 -0.0012566117 0.0024642006 0.0010612499 4.2178453e-05 0.00039834206 0.0031234573 -0.0029231962 -0.004812748 -0.0030404578 -5.0314907e-06 0.0043426617 -0.0029584686 -0.0015859952 -0.0022378264 0.0002905778 0.004974379 -0.0041194106 -0.0007305207 -0.00049337506 -0.004908446 -0.0025022812 -0.0047393395 0.0035544957 0.00026775608 -0.004738124 -0.0024245745 0.004636156 0.0041722204 0.0014316502 -0.0019665966 0.0047331424 0.0028901005 0.0049622776 0.0030570182 0.0018440394 0.0010154133 1.7195267e-05 0.0031400588 0.0017971357 -0.002455229 0.0032310446 0.0016173366 0.0011424209 -0.002262944 0.0043917648 0.0029429155 0.00385147
auténtica -0.0027317363 -0.0031273526 -0.0017589848 0.004760339 0.0040840395 0.0025850523 0.0003210692 0.00026092518 0.0015439561 0.0010289592 -0.0011562603 2.2521883e-05 -0.0041501774 -0.0020203996 0.0020264892 -0.0020543977 -0.00014278814 -0.0028687133 -0.004888853 0.0009975951 0.0015208208 -0.0013299206 0.0035775397 -0.0020200745 -6.1476276e-05 -0.0021956353 0.00021888339 -0.002338879 0.0030703612 0.0049936366 -0.002440663 -7.343464e-05 -0.0042980798 -0.0044841925 0.002594148 -0.004140976 -0.0043945243 0.0015366579 -0.0032394067 0.002527046 0.00022950384 -0.0016826694 -0.004438343 -0.0045451703 0.0014050362 0.0010056159 0.0012638858 0.0015832833 -0.004142132 -0.0010870368 -0.0028315037 0.004264142 0.0033696943 -0.00063824106 0.0023462086 -0.0010231552 -0.0010036546 0.004982437 0.00066367025 0.0019683903 0.004062899 -0.0035139914 -0.0035575822 0.0020674788 -0.0014355001 -0.00217903 0.003562715 -0.0006232451 0.004557915 0.0023193758 0.0048271776 0.0007169801 -0.0047678715 0.0007320924 -6.943664e-05 0.0047274046 -0.0015686157 -0.00077975675 -0.00026843464 0.002245429 0.0011494475 -0.0031879498 -0.0029857457 0.0031003053 0.0035715322 -0.0028396053 -0.0042303624 -0.0039304164 0.0026411673 0.00049669686 -0.00033666563 0.0017111496 -0.0016061447 5.0061386e-05 0.0033393062 -0.00093565887 0.0008381959 0.0048500802 -0.004744437 0.002448913
richard 0.0015632346 0.0008695838 -0.0027869942 -0.002340551 -0.00032254163 0.0032142478 -0.0028020751 -0.0022827133 -0.004522685 0.0032146883 0.0044144895 0.0024349962 0.0021334097 -0.00072663784 0.0030138742 0.003038767 -0.0022691712 0.00091286504 -0.0045242626 0.0023388374 -0.00465526 -0.0028202382 0.0022255227 0.0043401606 0.0010334091 0.0031093173 -0.0011103424 0.0020623214 -0.0039344206 -0.0015962602 -0.00399767 0.0024617696 0.0029951949 -0.004496093 0.00081650063 0.0017695051 -0.0029909378 -0.00097589946 -6.704758e-05 -0.0019448166 -0.0031197644 0.0012248697 -0.0037785468 0.0027087315 -0.0035975464 0.0026688692 -0.0022596135 0.0004553347 0.0019225677 0.00037614282 0.0035377326 -0.00067392143 0.0022565657 -0.00054357876 -0.0020766146 -0.0010626778 0.002591371 -0.0031852853 -0.003344865 0.001170221 -0.003579362 -0.0004359964 0.0036196862 0.0033148513 -0.0033946338 3.6789843e-05 0.0032462275 -0.0040411144 0.0024029766 -0.0017641338 -0.004746521 -0.0041567115 0.0046733106 -0.0031709382 -0.0034114087 -0.004544504 -0.0022240921 -0.004547369 0.002624621 -0.00038676316 -0.00191114 0.00076252205 -0.0013463871 -0.00052634417 -0.002545483 -0.001381903 0.004748552 -0.004989176 -0.0019282387 0.0028549603 -0.0021718405 -0.0038925933 0.004587261 -0.0009643427 -0.004146685 -0.004380454 0.004002273 0.0036872344 0.0010651825 -0.0032351885
vaughan -0.0012671212 -0.0005245479 -0.0012135156 -0.0028294462 0.004566826 -0.0028131749 0.00031022163 0.00031112792 0.0024915414 -0.004730008 0.0019374187 -0.00484054 0.0040749386 -0.0008814803 -0.0027342346 -0.002732091 -0.0046333736 0.0038515215 0.0026242547 -0.0013398362 0.0017754558 0.0021306612 0.0017368773 0.0048978366 0.0011981338 0.0020707927 -0.00020394345 -0.004580307 -0.0023468975 -0.0049214773 -0.0037916945 0.0037264836 -0.0011132123 -0.0042338744 -0.003551398 0.004175617 0.0019840067 0.0029033201 -0.004686743 3.983276e-05 9.885725e-05 -0.0006907835 -0.001874312 -0.0014864954 -0.0011061119 -0.0039867545 0.0027376271 0.00327451 0.0027183734 0.0023890822 0.0040621273 0.0014948888 -0.00031965892 0.003080557 -0.004770771 -0.0049301847 0.0034356595 0.0048398953 0.00088083505 0.0009514868 0.0026083998 0.004314632 -0.0033873166 0.0003676143 -0.0010945065 0.0047751665 0.0016944819 -0.00075266196 0.0044294717 -0.0042273477 0.0013662749 0.0017756814 -0.0012437322 -0.001645964 -0.0008879856 -0.004329131 0.00089011336 -0.0029557352 -0.00080268626 0.00012708094 -0.0031639922 0.002675029 -0.0023229953 0.0015473935 -0.003247935 -0.0024232687 0.0036070948 -0.0027416481 0.0048559746 0.0018335457 0.0014824747 -0.002080581 -0.0039374973 -0.0037882696 0.00044333583 0.0025947485 7.5257834e-05 0.004981761 -0.0037659372 0.004943116
piensa 0.0018119795 0.0025602384 0.0033018272 0.002695588 -0.0037198 0.00161905 0.00016511833 0.0016109634 -0.00057260663 -0.0007404034 0.0037790572 -0.0015059881 -0.0033894053 0.004283583 0.0035322339 0.0018463361 -0.004280427 0.00049312593 -0.004908064 0.0034188644 -0.002563449 0.004047994 0.0032896164 0.002561303 0.0021457246 -0.0007850779 -0.0044251815 0.0020287244 -0.0038473168 0.0042196033 -0.0039389147 -0.00045093076 0.00428642 -0.0013967764 -0.0017000091 -0.0020547584 0.0012337895 0.0033524875 -0.002472277 0.002740206 0.0046666213 -0.0026481522 0.00468956 -0.0025348784 0.0021096265 -0.0048061996 -0.004824132 0.004736718 0.000902721 0.0035739213 -0.0032848653 0.0022524307 -0.004032535 -0.0021701592 0.00017184086 0.0028918833 0.003972154 -0.0012035408 0.004865792 0.002251015 -0.002014518 0.0030762525 -0.00057549035 -0.0012198496 0.0020197013 0.00085114106 -0.0010144548 0.0019436514 0.003264068 0.0012549108 -0.003208738 0.0016324127 0.0045985263 -0.00418174 -0.0036805891 0.0010869349 -0.0004163944 0.0012195508 -0.00061962765 0.004002156 0.0028702333 -0.003238858 -0.0027198393 0.0015623544 -0.0008945943 0.004826445 -0.0024083152 0.002824509 0.0012159008 -0.00031817248 -0.0013587681 0.0014061342 -0.0009170918 0.0049002473 -0.0008898009 -0.0031592296 0.000624749 -0.0045013526 0.0020489083 -0.0016197144
bien 0.0022050892 0.0002670989 0.0019060818 0.0039793984 0.0021702456 -0.0040956945 -0.00077753206 0.0026507345 0.0018757974 0.0018598386 0.0018688929 0.0038800256 -0.0049718875 -0.0011619399 -0.002017726 0.0023652778 -0.0042219423 -0.00028722076 -0.0033644391 0.003873264 -0.0011740626 0.0035188403 -4.152596e-05 -0.002731033 0.0026407344 -0.0017590798 0.004396581 -0.0013610083 0.0002990564 -0.0013973123 -0.0020382348 -0.0019209059 -0.00031852274 0.0009045347 0.004847688 -0.00073445874 -0.0018822155 -8.3974315e-05 0.0040063728 0.0008878788 0.0007643417 -0.0024950127 0.004653871 0.0011041848 -0.0030010634 -0.0007026943 -0.001332282 0.0048418283 -0.0041337064 -0.002335388 -0.0027326224 -0.0005505753 0.0019145434 -0.0008792092 0.0023480032 -7.843083e-05 0.0032178015 0.003525202 0.0028456207 -0.0029728098 0.001685217 0.0022348096 0.0021606109 0.0029195107 -0.0007547343 -0.004526944 0.003842866 0.0019421319 7.081013e-05 7.9622776e-05 0.0037562547 0.0027555802 0.0032731472 0.0002738052 0.00052404683 -0.0025382328 -0.003469753 0.0048609027 0.0045698597 0.0007770135 0.0017698988 -0.0023038727 -0.002630833 0.0036887785 -0.002107592 0.0014037575 -0.00019814038 -0.003231149 0.0021615522 0.004832372 0.0027055072 -9.9250814e-05 -0.0030482288 -0.0037789352 0.0008900546 0.0028942234 0.0009266721 0.0018595225 -0.0026008014 -0.004656962
acertarás -7.8722274e-05 -0.00031001767 0.0041256207 0.0022269 -0.0009078621 0.0041123633 0.00011082914 -7.574713e-05 0.0027978732 0.003091976 -0.0028245316 0.00062131515 0.001987972 -0.00037135824 -0.0009283986 -0.0013055832 0.0011006499 -0.002652444 -0.0035646292 0.003439483 0.0032787337 0.0045118663 -0.0038843364 0.0032893023 0.0020753352 -4.5027176e-05 -0.0043261405 0.0026743968 -0.001628287 0.001244348 0.0048102154 -0.0018564078 -0.0005022812 -0.004665845 0.0018542102 0.0046446426 0.0028947087 -0.00021439692 0.00068012794 0.0043971464 -0.002030399 -0.0022002505 0.0022524167 0.0016301082 0.0026788963 0.004488606 -0.0021521512 0.003991713 -0.0028622898 -0.004983947 0.0020729487 0.0006231461 0.0010991044 0.0048897774 0.0036955532 -0.0009864491 0.0028407548 0.0013762228 0.0046601696 -0.003892258 -0.003564275 0.0040123737 -0.0009713539 -0.0018035669 -0.0030180414 0.0028336057 0.0029416762 0.0042639105 -0.0018262466 0.004291761 -0.0034761345 0.0016429756 0.0017388532 0.0024253756 -0.0045124884 0.0049520973 -0.0029784187 -0.0031772032 0.0021336651 0.0045969677 -0.0044460194 0.004387043 0.0033473757 -0.0037902542 -0.0017306979 -0.004973206 0.0021754468 0.0010013583 0.00060675456 -0.0015932829 -0.0005566943 0.004013053 -0.00096379314 -0.004357201 -0.0032359483 0.0027313118 -0.0023499823 0.0012571027 0.002263716 -0.004566079
salvar 0.0047732973 0.0045664036 0.0019248291 -0.00042292185 -0.004307665 0.0014721095 -0.002499524 -0.004592172 -0.0043825484 0.0037024845 0.0027960313 0.0045090285 -0.0017405814 -0.0015852106 0.00436845 -0.0038218647 -0.002522182 0.0031759723 0.0002354714 -0.004150603 -0.0019155865 -0.0049353894 0.0049050837 -0.0001338307 0.0035873721 0.0034671896 0.0010299644 0.0028980623 0.0032775681 -0.0029492187 -0.0015355967 0.00277241 -0.0040817484 -0.004375989 -0.0042266967 -0.0029820474 -0.0032890083 -0.0022078413 -0.0044349083 -0.004027443 -0.000982477 0.0007254873 -0.0041677887 -0.004469729 -0.0011222531 0.0042644665 -0.0017219454 -0.0026744117 -0.0023962776 0.0042813476 0.0028092156 -0.0008410375 0.0018454505 -0.00045694932 0.0020104626 -0.002382268 0.002500408 -0.0029738937 0.0039892164 -0.0023004776 -0.001579273 0.001461973 -0.002935243 0.00418447 0.0010780313 0.004971534 -0.004186686 0.0028252923 -0.0014332113 -0.0020470698 -0.003518829 -0.0039301706 -0.0031771094 -0.0030889518 -0.00048164427 -0.0021678056 -0.0024810177 -0.0013443795 -0.0030271686 0.0046730894 -0.003594068 0.0011987012 0.0015230388 -0.00085841917 -0.001280662 -0.004579484 0.0021684847 0.0023699412 0.00074092473 -0.0036330433 0.002400292 0.0042427615 0.003702088 -0.0014496872 0.0017601564 0.0041011227 0.0044726687 -0.002072721 -0.0002933602 0.0011746573
taiti -0.0005676302 0.00020042973 -0.003496875 0.00031890714 0.0031317726 0.0011401002 -0.00016385182 0.0037285653 -0.002794117 0.0007031848 0.0015352983 0.0035390386 0.001735989 0.004875973 -0.004427789 0.0021551822 -0.0011684379 0.0038422956 0.0020543465 -0.0026304082 -0.00012528054 -0.0040422687 -0.0043266593 0.0034060436 0.0048516546 0.0012546707 -0.0043144114 0.0037815238 -0.0037587048 -0.00065192394 -0.00328909 0.003470055 0.0018881143 0.00040717726 -0.00027764312 0.0014063601 -0.004918369 -0.004802895 0.0012404288 0.0035376363 -0.001988635 0.0026554335 0.00222151 -0.0031001503 -0.0033024056 0.0042758007 -0.0041734325 -0.000989739 0.002799844 -0.0013280073 0.0017327111 -0.0008557517 0.0049186554 0.00203338 0.0032958565 -0.0026548894 0.0043130675 2.6384589e-05 0.0028999362 -0.004425222 -0.0031003396 0.0042283745 -0.00088580884 -0.0031015575 -0.0035359582 0.0020705091 1.5977308e-05 0.00032725165 0.0023825103 0.0029482348 -0.004933918 -0.003662254 -0.0006586582 0.0028918697 -0.0038152148 0.0049535823 0.00033405027 0.0023391207 -0.00043475028 -0.0021026426 0.0016007615 -0.0021292432 0.0021519016 -0.00094065355 0.0020156165 -0.002020471 0.0023929027 -0.0007476232 6.13791e-05 -0.004156601 -0.0029458373 -0.0001360894 0.003099311 0.0027919444 -0.0027489103 -0.002491916 0.0012141386 0.0035456237 0.0033226346 -0.0035348365
agua 0.00010820471 0.0008640272 0.0046910844 0.001992395 0.0043821656 -0.0006025467 -0.0010533122 0.0023248042 0.0012429798 -0.0035030174 -0.0034536202 -0.001564003 -0.002580655 -0.0017011944 0.0046265973 0.004235635 0.00058505486 0.0014656669 0.0011350878 0.0007334114 0.0034493285 -0.0038383016 -0.0030145545 -0.004627891 -0.0002962366 0.0027762572 0.0013771353 0.0020330478 0.0030913658 -0.0013344324 0.0030080718 -0.0026483452 -0.0031377466 0.003298271 0.0045865234 0.0012198332 0.0036385974 0.0011190249 0.0015374648 -0.004813629 -0.003275017 0.0021895843 -0.0030621209 -0.0022372506 0.0012511609 0.002183018 -0.002444565 0.004099912 0.004921031 -0.00025333362 0.0011008715 -0.00075988815 0.0030719119 -0.002330264 0.0025513896 -0.0015298584 0.0011723517 0.0045573516 0.003488973 0.0035495067 -0.0047110845 0.0004911626 -0.00039993026 -0.0046711653 0.0048579127 -0.0042966926 -0.0010702886 0.0032685813 0.0013751436 0.0024613158 -0.0005057494 0.003874699 0.0020956593 -0.0031764223 0.00395476 0.0030698017 0.0025834562 -0.0003463716 -0.004851932 0.0020386323 0.00021184403 -0.0030820912 -0.0047134175 0.00078769994 0.0015976166 -0.0044702236 -0.0003101741 0.0001804108 0.001343094 -0.0024013754 -0.004619964 -0.004415244 -0.004578371 0.0016829686 0.0007685741 -0.001740289 -0.0049653333 -0.0022463752 -0.0035693394 0.002590546
santi 0.004906651 -0.0014060393 0.00017579569 -0.0027852207 -0.0022712857 -0.0029091025 0.0014104708 -0.003861603 -0.0038721114 -0.002528765 -0.00085575937 -0.003243086 0.0038400986 -0.0025243107 0.00014973486 -0.0014839496 -0.0029891434 -0.0025580346 -0.002286331 -0.0046928106 -0.00086050044 0.0010057637 -0.0022174504 0.00027020348 -0.00028165217 -0.0017721523 -0.0017541394 0.0040847235 0.0010426507 0.0027369903 0.0017547001 0.004360033 -0.00017659986 0.0033420008 0.0039978917 -0.0021132808 -0.0036437293 -0.0036233207 -0.0010361518 -0.003597055 0.0009601904 0.002249636 -0.0013610641 -0.004356643 0.0033851182 -0.0009062089 0.00496373 0.003779179 -0.00047855466 -0.0012588002 0.00061847386 -0.0035442759 0.004865444 -0.0017006632 0.0016670617 -0.0023589588 -0.0035096162 0.00061138795 -0.00087608804 -0.0036821016 0.0040299324 -0.003717107 -0.003454504 -0.00051223865 0.0035191532 -0.0016572508 0.0034233814 -0.0015493336 -0.00033919216 0.0019983577 -0.0013843916 0.0035716407 0.0033058063 -0.00062290445 0.0016076027 0.00091896276 -0.0030030634 -0.001129433 -0.0041693654 0.0017419411 0.0017328343 0.0049893535 0.0026546093 -0.00068865117 0.0021092559 0.0026907003 0.0012806953 0.002220285 -0.0034532675 -5.4075954e-05 -0.0027426127 0.004429331 0.004612518 -0.0024262262 0.0011076096 -0.00368147 0.0042815614 0.002900263 0.00034602877 0.003015421
alverú -0.0014888291 0.0011003377 -0.0003452488 -0.0020884676 -0.0008957952 -0.0033138175 0.0032321927 0.0024611005 6.470892e-05 0.002297432 0.000992368 -0.004382296 -0.0024321158 0.004398427 0.0008601515 -0.0031044146 0.001870626 0.0004015764 -0.004718926 -0.0041644345 0.0049703238 0.004469198 -0.0016907252 -0.0006163277 0.0038284375 -0.0045556743 -0.00034806418 0.00043806166 0.0038212186 -0.0027109848 -0.0020486244 0.0031221076 -0.0022922123 -0.0048797256 0.003191123 -0.0002567825 -0.0038270012 0.0022301562 0.003554019 -0.0034513706 0.0039640306 0.0016416762 0.0019646243 -0.0032973688 0.004904084 -5.4738215e-05 -0.0005264932 -0.003964034 0.004487377 -0.0039814515 0.00016468149 -0.000548315 -0.00024680753 0.0033046326 0.004626119 0.003003781 0.0020352274 0.0026376352 0.00265641 -1.5632158e-05 -0.00015110383 -0.0029306866 -0.00020081612 -0.0039028344 -0.0026307262 -0.0032543086 0.0048556854 -0.004723198 -0.0013474183 -0.0038195956 -0.0043047494 -0.00067691563 -0.0009846428 -0.0012807734 0.0033202397 -0.0009438014 0.0023892634 0.0020468023 0.0035374025 0.004021386 -0.002799752 0.0023486728 0.002734899 0.004407999 0.004997865 -0.0005845179 0.0032896996 0.0025099767 -0.0037254358 -0.0030745587 0.0030673651 0.00032710365 -0.0004015363 -0.0020891542 0.0016714929 0.004196936 -0.0032046598 0.00023128146 6.654633e-05 -0.0030707866
emprendedor -0.0010550009 -0.004201746 -0.0028875954 0.0033889154 0.003413839 0.003986086 -0.0019835727 0.0035966057 -0.0026820556 -0.0027566126 0.00063383044 -0.0012769529 -0.002747394 0.0047040293 -0.0027453299 0.0020669033 -0.0044190567 0.0009818048 0.0019356997 0.00040999494 0.0009539186 0.004929835 0.0021218848 -0.0024995094 0.0005948704 0.004224091 0.00059588137 0.004970866 -0.0047854916 -0.00072672794 0.0035198815 -0.0044835634 -0.0044018193 -0.00044415053 0.0026182989 0.00062446075 -0.0023247793 -0.002271825 -0.0008455049 0.0043785567 0.0017134469 -0.0018002816 -0.0027835893 -0.00075960613 0.0011322689 -0.0018935503 -0.0041265935 -0.0042398474 0.0020668474 0.0046827476 -0.0025727432 0.0012121596 -0.004065937 0.0009124668 -0.004230055 0.00034166884 -8.0054546e-05 -0.001813055 0.00041402716 0.0022094185 0.004352199 0.0021720703 0.0038547334 -0.0034370667 0.0042506554 -0.00017155409 0.0040067197 0.0030055214 -0.0013469467 0.0020750477 -0.003908261 -0.001559155 -0.0048225094 -0.00080377236 0.0009937765 0.00031990258 -0.0043416973 0.0004505749 0.002370699 0.0007573144 0.0035512038 0.0016484105 -0.0027115042 -0.002540922 0.0031149117 0.0019892629 0.0014668478 0.004430916 0.0018671451 -0.0035610425 -0.00023700594 -1.8592786e-05 -0.0018933457 -0.0015060377 0.0016331458 0.0012357585 0.0047957376 -0.0024150333 0.003614675 -0.0035979683
nominado 0.00013154367 0.0012598543 -0.0022318622 -0.003871751 0.002991892 0.00088722847 0.004210683 -0.0024738754 -0.003780766 -0.0023442525 -0.004633005 0.0029022107 -0.00492736 -0.004641893 -0.002125691 5.316e-06 -0.0022519506 -0.0008722722 0.001172901 0.0031478174 0.0015116086 -0.0045566414 0.0028350244 0.0024948367 -0.001215592 -0.0021036565 -7.846784e-05 0.00032828233 0.0016224218 -0.0027572582 0.004426107 -0.0013053365 0.0023183965 -0.0048334785 0.0039916504 -0.0031857875 0.0035775153 -0.0009029616 0.0019263931 0.0025295678 -0.000530307 -0.0012625672 -0.0020068935 0.004122164 -0.0033123638 -0.0009917907 0.0042348066 0.00026686623 -0.0039111297 0.004208381 0.004626544 -0.0042673317 0.0041958895 0.00089609344 -0.0026604647 -0.0027448328 -0.0048418315 -0.0015365334 -0.004263803 -0.0046879333 -0.0028035804 0.0023006191 -0.0036999036 0.0005286249 -0.0030946862 0.0022647495 0.00081465964 -0.004004689 -0.000127885 -0.0038350422 0.0045945356 -0.002590111 0.0036937534 -0.0014491418 -0.00032071755 0.003959467 -0.004368404 0.0010864366 0.0023566876 -0.001060442 -7.920087e-05 -0.0049751285 0.00046365915 -0.00017857319 0.0049687196 0.0004387564 0.0008918116 -0.0007768166 0.004839644 0.0010008623 0.0048182597 -0.00076876767 0.0013992207 -0.0021601676 -0.0020905174 0.0026568857 -0.0032602737 0.0013067495 -9.710339e-05 0.0046929833
goya -0.0033184397 8.950538e-05 -0.0006430471 0.0008772739 0.00029662938 0.0006761761 -0.0023724532 -0.004073226 0.002031506 0.0032512827 0.004254706 0.0012340257 -0.0033309103 -0.0014924299 0.00016899094 -0.00045310488 0.0024809919 -0.00040763782 -0.0009647829 0.003463956 0.0021387113 0.0048216525 -0.00047736574 -0.0013250851 0.0023753643 -0.004512434 0.0049700434 0.0013831126 0.0032654786 0.0022078068 -0.00049989636 0.0027471236 0.0015942064 -0.0009228701 0.00066122273 5.1545958e-05 -0.0015930647 0.0032243226 0.004268458 0.003563752 -0.0023030455 0.0014171585 0.0036858525 -0.0009910404 -0.0031091836 -0.00054337614 0.0028105096 -0.002282007 -0.0041069402 -0.00454089 0.0024557181 -0.0025863736 0.0029124238 -0.00063642266 0.0032988132 -0.00017025758 0.0043327753 -0.00074174796 0.0030362743 -0.0011698905 -0.0038480202 0.0010133613 -0.0025840546 0.0004923222 -0.0028404794 -0.0012606985 0.0025834772 0.002906589 0.0024709767 0.002636023 -0.004046447 -0.0010918917 0.0034120579 -0.0012020115 -0.004488825 -0.0034353912 -0.0041374387 0.0046563377 -0.0035748242 0.0021734885 -0.004110641 -0.0025342505 0.0037897008 -0.003608192 0.00018168057 0.0020695177 0.0024818326 0.003772269 -0.0010049063 -0.0016289692 0.0010572687 0.003102115 -0.0001954404 -0.0032795116 -0.0017421772 0.0028290355 0.0011246926 -0.0043177777 0.0009154122 -0.0008098534
crítico -0.0023681787 -0.0048555313 0.00034980665 0.0010734261 -0.00024087081 0.0017222753 -0.002866549 -0.0033828765 -0.0013244038 -0.003626645 -0.00093042443 -0.0049877237 0.0041219424 0.0036069152 -0.0018216529 -0.003906017 -0.0010398802 0.002729695 0.0009776549 0.004540044 -0.00061227696 -0.0014152849 0.0010531133 -0.004375164 -0.0029934251 -0.0009594958 0.0039096405 0.00018840382 -0.0019465935 0.0037213701 -0.0036247477 -0.0001468391 -0.0013732908 -0.0006987697 0.0009112557 0.0027746686 0.0037978592 0.0007839132 -0.0041693137 0.0027612085 -0.0036832425 0.0040931897 0.0010306312 0.0041985153 0.0031334052 -0.00026027777 -0.002054229 0.0035109972 -0.0035214021 0.0016350509 -0.0016972168 -0.00037301937 0.0021746086 -0.0037821042 0.0022500895 0.0019344928 0.0040983167 -0.0032209721 0.002129549 0.0023687659 0.0029317203 -0.0021277037 -0.0023674858 -0.00467577 0.0034294163 0.000357217 0.0022666417 -0.0037990462 0.0011037817 -0.0013028245 -0.0022342424 0.0037221445 -0.0030513664 0.0047738515 0.0012396084 -0.0024194112 0.00043825165 0.0041250302 0.0029622368 -0.000854157 0.0017413907 0.0035867624 -0.004127905 0.0033710296 0.0009991546 0.0028718205 0.0048869574 -0.003368831 0.0026219434 -0.0009886866 -0.0031543816 -0.0014826822 -0.0004572745 0.0013143346 0.00050031336 0.00087307085 -0.00022351205 -0.0003075693 -0.0015426169 -0.0023691854
sergio 0.004777444 0.003547297 0.0021401648 -0.0045508277 -0.0014896797 -0.0026210267 0.0031463222 0.003054684 -0.0005853596 0.0042217565 0.00078460685 0.0008642106 -0.004141129 0.0008770918 -0.0010469151 -0.004216995 0.0029250025 -0.0023141182 -0.0025226818 -0.004582751 0.003523685 0.0014020839 -0.0016342762 0.0012650013 0.0007756123 -0.0016776376 0.00013889879 0.0025581915 0.0017128224 0.003639295 0.0017229719 -0.00049342436 0.0024133248 -0.002598829 0.002262214 3.048649e-05 -0.002063654 -0.0013549482 0.0035574299 -0.0049035368 -0.0041860268 0.0005999446 0.0042685196 0.0037862507 -0.0013760551 0.002583855 0.001106634 -0.002677017 0.0042275926 0.0008899686 -0.0014310768 -0.0037887527 0.0001510478 -0.00301721 0.0033344221 0.0031512468 -0.004095417 -0.0014141413 0.0039447085 0.00011951259 -0.00027304026 0.0016042094 -0.003085203 -0.0010478527 -0.0033716175 -0.00033377495 5.1197712e-05 0.00027262903 -0.003462763 -0.004569171 -0.0017356155 -0.0025409167 -0.003606714 0.004667754 0.00013819593 -0.004539351 -0.0007903908 -0.0033922056 -0.0014893246 0.0047009396 -0.0041069537 0.0039780866 -0.0005564401 -0.00412203 0.0028213505 0.0044733067 0.0031403739 0.0004993959 -0.0047329394 0.0026540346 0.0042195665 -0.0045776363 0.0011298773 -0.0034428132 -0.0011740393 -0.0043926802 0.0012385894 0.0013034941 0.0043916046 0.0045754733
fernández -0.0029921352 0.0034589684 -0.0022333462 0.0012899386 0.0043959026 0.0048237247 -0.0041529383 -0.0042407243 -0.004985351 0.0031719634 0.0010246454 0.0037128492 0.004844186 0.004974356 0.0041705994 0.00076011854 0.0026582573 0.0015752637 -0.0006047766 0.0023652166 0.0031996528 -6.125098e-05 -0.0032195507 0.0028030423 0.0022817983 -0.0038695806 -0.00346853 0.0025918277 -0.002197092 -0.0036140752 -0.0037774849 0.0008049116 -0.0043371073 0.0029935788 0.0018694327 0.0017236158 0.0008736494 0.0014942229 -0.004442719 -0.004218221 0.0031298406 -0.00025906682 0.0020315675 -0.002867297 -0.0022217818 0.0042951056 -0.00018094268 0.004369024 0.003881663 0.00056334 0.0011049486 0.0022580477 0.0048477794 0.0046824566 -0.0008971177 0.00086046505 0.0047791684 -0.0011275567 -0.0007782674 -0.0018030753 -0.0043294365 0.002507227 -0.0017635345 -0.0019928731 0.0009149496 -0.0028515635 0.0031058537 -0.00025913265 0.004139208 -0.003630054 0.0039958353 0.0016904733 0.0034398783 -0.0040632705 0.0023694045 -0.003641239 0.0031684195 -0.004368481 0.0031236317 0.0027313167 -0.001714728 -0.0012533161 -0.002484551 0.003194765 -0.0018493437 -0.0016887524 0.0034406565 0.0017776713 0.00412406 0.004639239 0.0013574602 0.0015579588 -0.002117841 0.0012928802 -0.0022267671 0.0007373677 0.0022782532 -0.0022147498 0.00344809 0.001445101
crecimiento 0.0007049747 -0.0033495333 -0.0004354275 -0.0033603897 0.003919327 0.003819973 -0.0036844236 0.0016299944 0.0046435264 0.0007728461 -0.0016768508 -0.0018369026 0.004019111 0.00347081 -0.004980805 -0.0041988674 -0.0018943339 -0.0044860886 -0.004502737 -0.001812895 -0.0035986765 0.003941433 -0.0017897608 -0.00266866 -0.004586504 0.0037005723 0.0005306064 -0.0046205935 -0.003821994 -0.0037752541 0.0033378557 -0.00041639848 -0.0006663842 0.0037427032 0.0026626936 0.0031579623 -0.0005182022 -0.0035682928 0.00073819613 0.004388316 -0.0030880556 -0.00054041843 0.0008456655 0.00041059253 -0.0017005014 0.0015010606 9.270282e-05 -0.0025703034 -0.0012376376 -0.002030375 0.002104123 3.7844136e-05 -0.0003866538 0.0047019324 -0.0005759767 -0.0017498414 -0.0030532924 0.0016444179 7.9788115e-05 0.0030731207 -0.00045606264 -0.0022953027 0.00014395894 0.00038747897 -0.0004463607 -0.0045465888 -0.0015378152 -0.0047980784 0.0039056088 -0.0047092303 0.0036512206 0.0021145537 0.0016245965 0.0046877307 -0.003986374 0.00094656536 0.0030003807 -0.004179597 0.0016296213 0.0047062086 -0.0010375016 -0.0009707435 0.002112974 0.002814189 -0.000495147 0.0026866724 0.0021341012 -0.004787692 0.0042601256 0.0021628449 0.0034549716 -0.004885286 0.0033719656 -0.0016449568 0.0031955533 -0.0029576665 0.0026558978 0.001822629 0.0006488606 -0.004380403
personal 0.0041581388 -0.0020182335 0.002559999 -0.00040059583 0.0041464963 -0.0020299011 0.0033736315 0.0037025544 -0.0025636482 0.0009816559 -0.0038074895 -0.003018199 -0.0010637188 -0.0032342554 -0.002947194 -0.0046682 0.0032821859 0.003346434 0.0003572745 0.0017168391 0.00044343818 -0.0008207509 -0.00075573777 0.0006460369 0.0048636817 0.0029878472 0.0022317555 0.0041073877 -0.0013231465 -0.0023578238 0.0041913753 -0.0019283019 0.0019117992 -0.0027277952 0.0032560069 0.0012427759 0.0029432229 0.0019445996 -0.0025843028 -0.0024155786 -0.003126353 -0.0026296542 0.0039603356 0.0017006559 -0.0038738507 -0.00011812683 0.0019396832 0.0008814565 -0.00011879795 0.0049088425 -0.0018840878 -0.004223739 -0.0032740862 0.003641402 -0.000649712 -0.004713834 0.0007102407 0.0014840491 0.0003946066 0.003962712 -0.00023511433 -0.0028018032 -0.0033304973 0.0048967404 -0.0041584373 -0.0017991165 -0.0026259494 -0.00025214392 0.0017840338 -0.0023090118 -0.0025359173 0.00057293725 -0.0049904003 0.0034187068 0.002604496 -0.0017708964 0.0043862085 0.00011254798 -0.0026129198 -0.0026364317 0.0045939353 -0.0012038545 -0.0014283594 0.0037799536 0.00014929681 -0.004115727 0.0022903832 -0.00411576 -0.0032791335 0.0030547644 -0.00425927 -0.0013480799 0.0016151554 -0.004349048 0.001311067 0.0017200809 -0.0007424755 -0.0019486875 -0.0013512598 -0.001248711
